{"learner":{"attributes":{},"feature_names":["Age","NumberOfDependents","MonthlyIncome","DebtRatio","RevolvingUtilizationOfUnsecuredLines","NumberOfOpenCreditLinesAndLoans","NumberRealEstateLoansOrLines","NumberOfTime30-59DaysPastDueNotWorse","NumberOfTime60-89DaysPastDueNotWorse","NumberOfTimes90DaysLate"],"feature_types":["float","float","float","float","float","float","float","float","float","float"],"gradient_booster":{"model":{"cats":{"enc":[],"feature_segments":[],"sorted_idx":[]},"gbtree_model_param":{"num_parallel_tree":"1","num_trees":"200"},"iteration_indptr":[0,1,2,3,4,5,6,7,8,9,10,11,12,13,14,15,16,17,18,19,20,21,22,23,24,25,26,27,28,29,30,31,32,33,34,35,36,37,38,39,40,41,42,43,44,45,46,47,48,49,50,51,52,53,54,55,56,57,58,59,60,61,62,63,64,65,66,67,68,69,70,71,72,73,74,75,76,77,78,79,80,81,82,83,84,85,86,87,88,89,90,91,92,93,94,95,96,97,98,99,100,101,102,103,104,105,106,107,108,109,110,111,112,113,114,115,116,117,118,119,120,121,122,123,124,125,126,127,128,129,130,131,132,133,134,135,136,137,138,139,140,141,142,143,144,145,146,147,148,149,150,151,152,153,154,155,156,157,158,159,160,161,162,163,164,165,166,167,168,169,170,171,172,173,174,175,176,177,178,179,180,181,182,183,184,185,186,187,188,189,190,191,192,193,194,195,196,197,198,199,200],"tree_info":[0,0,0,0,0,0,0,0,0,0,0,0,0,0,0,0,0,0,0,0,0,0,0,0,0,0,0,0,0,0,0,0,0,0,0,0,0,0,0,0,0,0,0,0,0,0,0,0,0,0,0,0,0,0,0,0,0,0,0,0,0,0,0,0,0,0,0,0,0,0,0,0,0,0,0,0,0,0,0,0,0,0,0,0,0,0,0,0,0,0,0,0,0,0,0,0,0,0,0,0,0,0,0,0,0,0,0,0,0,0,0,0,0,0,0,0,0,0,0,0,0,0,0,0,0,0,0,0,0,0,0,0,0,0,0,0,0,0,0,0,0,0,0,0,0,0,0,0,0,0,0,0,0,0,0,0,0,0,0,0,0,0,0,0,0,0,0,0,0,0,0,0,0,0,0,0,0,0,0,0,0,0,0,0,0,0,0,0,0,0,0,0,0,0,0,0,0,0,0,0],"trees":[{"base_weights":[-2.8444756E-8,-8.7863165E-1,9.6078986E-1,-1.1647573E0,4.0656734E-1,5.925866E-1,1.6989921E0,-1.2512908E0,1.1230438E0,1.630954E-1,1.5090172E0,2.2051176E-1,1.1979066E0,1.6096271E0,1.787732E0,-1.2995559E-1,5.409059E-2,9.414464E-2,1.634636E-1,-1.6828127E-3,1.1709874E-1,1.3636313E-1,1.751263E-1,9.461339E-3,1.3876532E-1,1.0584145E-1,1.5725441E-1,1.5270971E-1,1.751646E-1,1.2255446E-1,1.7929189E-1],"categories":[],"categories_nodes":[],"categories_segments":[],"categories_sizes":[],"default_left":[0,0,0,0,0,0,0,0,0,0,0,0,0,0,0,0,0,0,0,0,0,0,0,0,0,0,0,0,0,0,0],"id":0,"left_children":[1,3,5,7,9,11,13,15,17,19,21,23,25,27,29,-1,-1,-1,-1,-1,-1,-1,-1,-1,-1,-1,-1,-1,-1,-1,-1],"loss_changes":[4.726692E4,1.0755125E4,7.2685977E3,4.737076E3,1.4293993E3,4.0191372E3,6.770117E1,1.9945039E3,7.950427E1,7.913778E2,3.1541016E1,1.6241184E3,3.5335645E2,4.9418945E1,1.0796875E1,0E0,0E0,0E0,0E0,0E0,0E0,0E0,0E0,0E0,0E0,0E0,0E0,0E0,0E0,0E0,0E0],"parents":[2147483647,0,0,1,1,2,2,3,3,4,4,5,5,6,6,7,7,8,8,9,9,10,10,11,11,12,12,13,13,14,14],"right_children":[2,4,6,8,10,12,14,16,18,20,22,24,26,28,30,-1,-1,-1,-1,-1,-1,-1,-1,-1,-1,-1,-1,-1,-1,-1,-1],"split_conditions":[6.389768E-1,1E0,1E0,1E0,1E0,1E0,2E0,1E0,2E0,1E0,2E0,1E0,1E0,1E0,-1.3181819E0,-1.2995559E-1,5.409059E-2,9.414464E-2,1.634636E-1,-1.6828127E-3,1.1709874E-1,1.3636313E-1,1.751263E-1,9.461339E-3,1.3876532E-1,1.0584145E-1,1.5725441E-1,1.5270971E-1,1.751646E-1,1.2255446E-1,1.7929189E-1],"split_indices":[4,7,9,9,9,7,9,8,9,8,9,8,8,8,0,0,0,0,0,0,0,0,0,0,0,0,0,0,0,0,0],"split_type":[0,0,0,0,0,0,0,0,0,0,0,0,0,0,0,0,0,0,0,0,0,0,0,0,0,0,0,0,0,0,0],"sum_hessian":[5.59895E4,2.9245188E4,2.6744312E4,2.3919951E4,5.325237E3,1.7845213E4,8.899099E3,2.3048615E4,8.7133545E2,4.362863E3,9.62374E2,1.105274E4,6.792473E3,4.443469E3,4.45563E3,2.2444445E4,6.0417E2,6.4516473E2,2.2617073E2,3.7028357E3,6.600273E2,6.055666E2,3.5680746E2,9.977553E3,1.0751875E3,4.952347E3,1.8401257E3,2.8177595E3,1.6257095E3,4.2901817E1,4.412728E3],"tree_param":{"num_deleted":"0","num_feature":"10","num_nodes":"31","size_leaf_vector":"1"}},{"base_weights":[5.4882443E-5,-8.659485E-1,7.994003E-1,-1.1111137E0,3.0964297E-1,4.6102804E-1,1.534816E0,-1.1846582E0,9.814677E-1,1.02908604E-1,1.346219E0,1.2634963E-1,1.0404159E0,1.4484766E0,1.6224966E0,-1.2271904E-1,4.7163803E-2,8.3624415E-2,1.4859515E-1,-1.5991576E-2,7.060067E-2,1.1986865E-1,1.5871127E-1,1.7943647E-3,1.21672824E-1,6.390742E-2,1.179327E-1,1.373189E-1,1.6004066E-1,1.5344213E-1,1.6520031E-1],"categories":[],"categories_nodes":[],"categories_segments":[],"categories_sizes":[],"default_left":[0,0,0,0,0,0,0,0,0,0,0,0,0,0,0,0,0,0,0,0,0,0,0,0,0,0,0,0,0,0,0],"id":1,"left_children":[1,3,5,7,9,11,13,15,17,19,21,23,25,27,29,-1,-1,-1,-1,-1,-1,-1,-1,-1,-1,-1,-1,-1,-1,-1,-1],"loss_changes":[3.8620586E4,7.71842E3,7.218789E3,3.4112695E3,9.9028357E2,3.8530713E3,6.6853516E1,1.5085664E3,5.391455E1,6.110602E2,2.5406494E1,1.4889495E3,4.0486426E2,5.059668E1,9.230469E0,0E0,0E0,0E0,0E0,0E0,0E0,0E0,0E0,0E0,0E0,0E0,0E0,0E0,0E0,0E0,0E0],"parents":[2147483647,0,0,1,1,2,2,3,3,4,4,5,5,6,6,7,7,8,8,9,9,10,10,11,11,12,12,13,13,14,14],"right_children":[2,4,6,8,10,12,14,16,18,20,22,24,26,28,30,-1,-1,-1,-1,-1,-1,-1,-1,-1,-1,-1,-1,-1,-1,-1,-1],"split_conditions":[4.6933436E-1,1E0,1E0,1E0,1E0,1E0,2E0,1E0,1E0,2E0,2E0,1E0,1.0278347E0,2E0,-3.580532E-1,-1.2271904E-1,4.7163803E-2,8.3624415E-2,1.4859515E-1,-1.5991576E-2,7.060067E-2,1.1986865E-1,1.5871127E-1,1.7943647E-3,1.21672824E-1,6.390742E-2,1.179327E-1,1.373189E-1,1.6004066E-1,1.5344213E-1,1.6520031E-1],"split_indices":[4,7,9,9,9,7,9,8,8,7,9,8,4,7,3,0,0,0,0,0,0,0,0,0,0,0,0,0,0,0,0],"split_type":[0,0,0,0,0,0,0,0,0,0,0,0,0,0,0,0,0,0,0,0,0,0,0,0,0,0,0,0,0,0,0],"sum_hessian":[5.5789082E4,2.6777982E4,2.90111E4,2.215723E4,4.620751E3,1.987023E4,9.140868E3,2.1405365E4,7.518658E2,3.8533413E3,7.6740985E2,1.259567E4,7.2745615E3,4.614484E3,4.526385E3,2.0869709E4,5.356557E2,5.8587115E2,1.659946E2,2.6842888E3,1.1690525E3,4.7963776E2,2.877721E2,1.1457568E4,1.1381007E3,1.8718928E3,5.4026685E3,3.092204E3,1.5222797E3,1.1491669E3,3.3772178E3],"tree_param":{"num_deleted":"0","num_feature":"10","num_nodes":"31","size_leaf_vector":"1"}},{"base_weights":[1.3970854E-4,-7.1914524E-1,7.98668E-1,-9.581473E-1,3.3493504E-1,4.9486408E-1,1.4156117E0,-1.0300753E0,9.239211E-1,1.3691951E-1,1.2468182E0,1.9421744E-1,9.883996E-1,1.34018E0,1.508472E0,-1.18279494E-1,-5.5446636E-2,7.583282E-2,1.3939884E-1,-2.121629E-3,1.02875784E-1,1.2550567E-1,-1.6018717E-1,9.256422E-3,1.1489216E-1,7.8529425E-2,1.2255343E-1,1.261144E-1,1.4459094E-1,1.0284666E-1,1.513917E-1],"categories":[],"categories_nodes":[],"categories_segments":[],"categories_sizes":[],"default_left":[0,0,0,0,0,0,0,0,0,0,0,0,0,0,0,0,0,0,0,0,0,0,0,0,0,0,0,0,0,0,0],"id":2,"left_children":[1,3,5,7,9,11,13,15,17,19,21,23,25,27,29,-1,-1,-1,-1,-1,-1,-1,-1,-1,-1,-1,-1,-1,-1,-1,-1],"loss_changes":[3.175114E4,7.327135E3,4.9093926E3,3.2103672E3,9.7059344E2,2.6045723E3,5.8521484E1,1.6580039E3,6.691504E1,6.23122E2,2.4517822E1,1.0587363E3,3.1909717E2,3.8104492E1,8.546875E0,0E0,0E0,0E0,0E0,0E0,0E0,0E0,0E0,0E0,0E0,0E0,0E0,0E0,0E0,0E0,0E0],"parents":[2147483647,0,0,1,1,2,2,3,3,4,4,5,5,6,6,7,7,8,8,9,9,10,10,11,11,12,12,13,13,14,14],"right_children":[2,4,6,8,10,12,14,16,18,20,22,24,26,28,30,-1,-1,-1,-1,-1,-1,-1,-1,-1,-1,-1,-1,-1,-1,-1,-1],"split_conditions":[6.5491766E-1,1E0,1E0,1E0,1E0,1E0,1E0,1.2281922E-1,2E0,1E0,5.474279E3,1E0,2E0,2E0,-1.3181819E0,-1.18279494E-1,-5.5446636E-2,7.583282E-2,1.3939884E-1,-2.121629E-3,1.02875784E-1,1.2550567E-1,-1.6018717E-1,9.256422E-3,1.1489216E-1,7.8529425E-2,1.2255343E-1,1.261144E-1,1.4459094E-1,1.0284666E-1,1.513917E-1],"split_indices":[4,7,9,9,9,7,8,4,9,8,3,8,7,9,0,0,0,0,0,0,0,0,0,0,0,0,0,0,0,0,0],"split_type":[0,0,0,0,0,0,0,0,0,0,0,0,0,0,0,0,0,0,0,0,0,0,0,0,0,0,0,0,0,0,0],"sum_hessian":[5.5278E4,2.9082053E4,2.6195945E4,2.3706855E4,5.375198E3,1.7553709E4,8.642236E3,2.2834625E4,8.7223096E2,4.417161E3,9.580368E2,1.090942E4,6.644289E3,4.7771323E3,3.8651042E3,1.7283387E4,5.5512383E3,6.4694257E2,2.2528836E2,3.752725E3,6.6443616E2,9.55832E2,2.2048686E0,9.860599E3,1.0488215E3,3.5812588E3,3.06303E3,2.7410417E3,2.0360907E3,4.5482418E1,3.8196218E3],"tree_param":{"num_deleted":"0","num_feature":"10","num_nodes":"31","size_leaf_vector":"1"}},{"base_weights":[2.4837817E-4,-7.2087646E-1,6.6415167E-1,-9.2727286E-1,2.4979055E-1,3.7958303E-1,1.3055049E0,-9.887776E-1,8.1020236E-1,7.985479E-2,1.1315478E0,1.0472636E-1,8.643183E-1,1.2306759E0,1.399949E0,-1.06398575E-1,-1.6576473E-2,6.7545205E-2,1.2841004E-1,-1.5289058E-2,6.16174E-2,9.882122E-2,1.3691361E-1,1.5907219E-3,1.02320604E-1,7.296294E-2,1.2398211E-1,1.1500082E-1,1.3428919E-1,9.441784E-2,1.4050546E-1],"categories":[],"categories_nodes":[],"categories_segments":[],"categories_sizes":[],"default_left":[0,0,0,0,0,0,0,0,0,0,0,0,0,0,0,0,0,0,0,0,0,0,0,0,0,0,0,0,0,0,0],"id":3,"left_children":[1,3,5,7,9,11,13,15,17,19,21,23,25,27,29,-1,-1,-1,-1,-1,-1,-1,-1,-1,-1,-1,-1,-1,-1,-1,-1],"loss_changes":[2.6119105E4,5.2393916E3,5.183671E3,2.305377E3,6.871363E2,2.621469E3,5.9970703E1,1.2890742E3,4.6250397E1,4.8021674E2,2.3881653E1,1.0244286E3,3.5918604E2,4.261963E1,7.635742E0,0E0,0E0,0E0,0E0,0E0,0E0,0E0,0E0,0E0,0E0,0E0,0E0,0E0,0E0,0E0,0E0],"parents":[2147483647,0,0,1,1,2,2,3,3,4,4,5,5,6,6,7,7,8,8,9,9,10,10,11,11,12,12,13,13,14,14],"right_children":[2,4,6,8,10,12,14,16,18,20,22,24,26,28,30,-1,-1,-1,-1,-1,-1,-1,-1,-1,-1,-1,-1,-1,-1,-1,-1],"split_conditions":[4.6933436E-1,1E0,1E0,1E0,1E0,1E0,1E0,1E0,1E0,2E0,2E0,1E0,1E0,2E0,-1.3181819E0,-1.06398575E-1,-1.6576473E-2,6.7545205E-2,1.2841004E-1,-1.5289058E-2,6.16174E-2,9.882122E-2,1.3691361E-1,1.5907219E-3,1.02320604E-1,7.296294E-2,1.2398211E-1,1.1500082E-1,1.3428919E-1,9.441784E-2,1.4050546E-1],"split_indices":[4,7,9,9,9,7,8,6,8,7,9,8,8,9,0,0,0,0,0,0,0,0,0,0,0,0,0,0,0,0,0],"split_type":[0,0,0,0,0,0,0,0,0,0,0,0,0,0,0,0,0,0,0,0,0,0,0,0,0,0,0,0,0,0,0],"sum_hessian":[5.4554062E4,2.6150057E4,2.8404004E4,2.1564719E4,4.5853394E3,1.9675549E4,8.728457E3,2.0827865E4,7.3685223E2,3.8453406E3,7.399987E2,1.25567705E4,7.118778E3,4.877778E3,3.8506787E3,1.9083678E4,1.7441891E3,5.756069E2,1.6124533E2,2.682107E3,1.1632336E3,4.6476694E2,2.7523178E2,1.1450498E4,1.1062727E3,5.24161E3,1.8771677E3,2.8443394E3,2.0334385E3,4.4717384E1,3.8059614E3],"tree_param":{"num_deleted":"0","num_feature":"10","num_nodes":"31","size_leaf_vector":"1"}},{"base_weights":[3.579645E-4,-5.761841E-1,7.063482E-1,-7.869461E-1,2.9875028E-1,4.512418E-1,1.226166E0,-8.493671E-1,7.8076214E-1,1.2719636E-1,1.0823561E0,2.0749158E-1,8.500495E-1,1.1227336E0,1.289696E0,-1.03863716E-1,-4.971834E-2,6.425684E-2,1.2227362E-1,-1.451144E-3,9.1096036E-2,1.0896373E-1,-1.5929307E-1,3.3272676E-2,-3.3289477E-2,7.5221196E-2,1.2716739E-1,1.0341772E-1,1.2307843E-1,1.2312191E-1,1.3400649E-1],"categories":[],"categories_nodes":[],"categories_segments":[],"categories_sizes":[],"default_left":[0,0,0,0,0,0,0,0,0,0,0,0,0,0,0,0,0,0,0,0,0,0,0,0,0,0,0,0,0,0,0],"id":4,"left_children":[1,3,5,7,9,11,13,15,17,19,21,23,25,27,29,-1,-1,-1,-1,-1,-1,-1,-1,-1,-1,-1,-1,-1,-1,-1,-1],"loss_changes":[2.1855205E4,5.4505723E3,3.2002598E3,2.3315625E3,7.712856E2,1.573918E3,5.0762695E1,1.5264551E3,5.495453E1,5.230107E2,2.1809814E1,6.803496E2,2.5241846E2,2.7729736E1,1.2827148E1,0E0,0E0,0E0,0E0,0E0,0E0,0E0,0E0,0E0,0E0,0E0,0E0,0E0,0E0,0E0,0E0],"parents":[2147483647,0,0,1,1,2,2,3,3,4,4,5,5,6,6,7,7,8,8,9,9,10,10,11,11,12,12,13,13,14,14],"right_children":[2,4,6,8,10,12,14,16,18,20,22,24,26,28,30,-1,-1,-1,-1,-1,-1,-1,-1,-1,-1,-1,-1,-1,-1,-1,-1],"split_conditions":[7.4810106E-1,1E0,1E0,1E0,1E0,1E0,1E0,4.947702E-3,1E0,1E0,5.911914E3,2.7272728E-1,1.6088289E0,2E0,2E0,-1.03863716E-1,-4.971834E-2,6.425684E-2,1.2227362E-1,-1.451144E-3,9.1096036E-2,1.0896373E-1,-1.5929307E-1,3.3272676E-2,-3.3289477E-2,7.5221196E-2,1.2716739E-1,1.0341772E-1,1.2307843E-1,1.2312191E-1,1.3400649E-1],"split_indices":[4,7,9,9,9,7,7,4,8,8,3,0,4,9,9,0,0,0,0,0,0,0,0,0,0,0,0,0,0,0,0],"split_type":[0,0,0,0,0,0,0,0,0,0,0,0,0,0,0,0,0,0,0,0,0,0,0,0,0,0,0,0,0,0,0],"sum_hessian":[5.3691934E4,2.9555678E4,2.4136256E4,2.381823E4,5.7374478E3,1.6191812E4,7.944445E3,2.2906621E4,9.1160785E2,4.707912E3,1.0295356E3,1.0050496E4,6.141316E3,3.0300027E3,4.914442E3,1.4898137E4,8.008486E3,6.9633575E2,2.152721E2,3.98787E3,7.2004205E2,1.0273323E3,2.2033298E0,8.15983E3,1.8906659E3,4.9868955E3,1.1544205E3,1.6710289E3,1.3589739E3,2.2859524E3,2.6284895E3],"tree_param":{"num_deleted":"0","num_feature":"10","num_nodes":"31","size_leaf_vector":"1"}},{"base_weights":[4.5000244E-4,-5.2826226E-1,6.482983E-1,-7.232395E-1,2.7128503E-1,4.096775E-1,1.149881E0,-7.812898E-1,7.924562E-1,1.1487285E-1,1.0066025E0,1.8694834E-1,7.808055E-1,1.0756712E0,1.2425452E0,-9.2814334E-2,-3.7881803E-2,6.606762E-2,1.389321E-1,-9.322027E-3,5.7017714E-2,8.922255E-2,1.20741226E-1,1.0336422E-2,9.787785E-2,5.9437405E-2,9.995572E-2,9.9834524E-2,1.1799359E-1,8.930913E-2,1.2513874E-1],"categories":[],"categories_nodes":[],"categories_segments":[],"categories_sizes":[],"default_left":[0,0,0,0,0,0,0,0,0,0,0,0,0,0,0,0,0,0,0,0,0,0,0,0,0,0,0,0,0,0,0],"id":5,"left_children":[1,3,5,7,9,11,13,15,17,19,21,23,25,27,29,-1,-1,-1,-1,-1,-1,-1,-1,-1,-1,-1,-1,-1,-1,-1,-1],"loss_changes":[1.8069818E4,4.528631E3,2.8369062E3,2.0554248E3,6.549569E2,1.3278613E3,5.1211914E1,1.3290625E3,6.687744E1,4.4514478E2,2.18656E1,6.6448914E2,2.4512744E2,3.309375E1,9.362793E0,0E0,0E0,0E0,0E0,0E0,0E0,0E0,0E0,0E0,0E0,0E0,0E0,0E0,0E0,0E0,0E0],"parents":[2147483647,0,0,1,1,2,2,3,3,4,4,5,5,6,6,7,7,8,8,9,9,10,10,11,11,12,12,13,13,14,14],"right_children":[2,4,6,8,10,12,14,16,18,20,22,24,26,28,30,-1,-1,-1,-1,-1,-1,-1,-1,-1,-1,-1,-1,-1,-1,-1,-1],"split_conditions":[7.4810106E-1,1E0,1E0,1E0,1E0,1E0,1E0,1.3921367E-1,2E0,2E0,2E0,1E0,2E0,2E0,-1.2272727E0,-9.2814334E-2,-3.7881803E-2,6.606762E-2,1.389321E-1,-9.322027E-3,5.7017714E-2,8.922255E-2,1.20741226E-1,1.0336422E-2,9.787785E-2,5.9437405E-2,9.995572E-2,9.9834524E-2,1.1799359E-1,8.930913E-2,1.2513874E-1],"split_indices":[4,7,9,8,9,7,8,4,8,7,9,8,7,9,0,0,0,0,0,0,0,0,0,0,0,0,0,0,0,0,0],"split_type":[0,0,0,0,0,0,0,0,0,0,0,0,0,0,0,0,0,0,0,0,0,0,0,0,0,0,0,0,0,0,0],"sum_hessian":[5.2752688E4,2.9047258E4,2.370543E4,2.33526E4,5.694657E3,1.6064696E4,7.6407324E3,2.2491666E4,8.609348E2,4.69675E3,9.979073E2,1.004049E4,6.0242065E3,4.2498584E3,3.3908743E3,1.6477916E4,6.0137495E3,7.0695514E2,1.5397963E2,3.2240293E3,1.472721E3,6.3924786E2,3.5865942E2,9.082852E3,9.5763855E2,3.2543757E3,2.7698306E3,2.446231E3,1.8036272E3,8.619854E1,3.3046758E3],"tree_param":{"num_deleted":"0","num_feature":"10","num_nodes":"31","size_leaf_vector":"1"}},{"base_weights":[5.614124E-4,-6.102921E-1,4.7700584E-1,-6.970626E-1,8.0643827E-1,2.5456053E-1,1.0694121E0,-8.177312E-1,-1.8806104E-2,6.8560153E-1,1.0772346E0,4.844196E-2,6.493639E-1,9.839673E-1,1.1601095E0,-8.598771E-2,6.347735E-2,-1.9520706E-2,4.360285E-2,7.196061E-2,-7.861065E-2,1.1134771E-1,7.621949E-2,2.1440176E-2,-3.230854E-2,5.2002925E-2,1.0284418E-1,9.0698116E-2,1.1446096E-1,1.0604119E-1,1.19229294E-1],"categories":[],"categories_nodes":[],"categories_segments":[],"categories_sizes":[],"default_left":[0,0,0,0,0,0,0,0,0,0,0,0,0,0,0,0,0,0,0,0,0,0,0,0,0,0,0,0,0,0,0],"id":6,"left_children":[1,3,5,7,9,11,13,15,17,19,21,23,25,27,29,-1,-1,-1,-1,-1,-1,-1,-1,-1,-1,-1,-1,-1,-1,-1,-1],"loss_changes":[1.5067483E4,2.7893438E3,3.8325864E3,1.749581E3,4.2118225E1,1.7208302E3,6.038867E1,1.1115342E3,2.5922232E2,4.6024353E1,3.7453003E0,8.56788E2,3.5508472E2,4.960376E1,1.1076172E1,0E0,0E0,0E0,0E0,0E0,0E0,0E0,0E0,0E0,0E0,0E0,0E0,0E0,0E0,0E0,0E0],"parents":[2147483647,0,0,1,1,2,2,3,3,4,4,5,5,6,6,7,7,8,8,9,9,10,10,11,11,12,12,13,13,14,14],"right_children":[2,4,6,8,10,12,14,16,18,20,22,24,26,28,30,-1,-1,-1,-1,-1,-1,-1,-1,-1,-1,-1,-1,-1,-1,-1,-1],"split_conditions":[3.2442182E-1,1E0,1E0,1E0,1E0,1E0,2E0,1E0,2E0,3.3575845E3,4.0208994E2,4.5454547E-2,1E0,2E0,-3.6300892E-1,-8.598771E-2,6.347735E-2,-1.9520706E-2,4.360285E-2,7.196061E-2,-7.861065E-2,1.1134771E-1,7.621949E-2,2.1440176E-2,-3.230854E-2,5.2002925E-2,1.0284418E-1,9.0698116E-2,1.1446096E-1,1.0604119E-1,1.19229294E-1],"split_indices":[4,8,9,7,9,7,9,9,7,3,3,0,8,7,3,0,0,0,0,0,0,0,0,0,0,0,0,0,0,0,0],"split_type":[0,0,0,0,0,0,0,0,0,0,0,0,0,0,0,0,0,0,0,0,0,0,0,0,0,0,0,0,0,0,0],"sum_hessian":[5.176958E4,2.2684854E4,2.9084727E4,2.1376137E4,1.3087166E3,2.1145963E4,7.9387637E3,1.8147338E4,3.2287979E3,9.073596E2,4.0135703E2,1.3893552E4,7.2524106E3,4.0938523E3,3.8449116E3,1.763602E4,5.1131918E2,2.3269104E3,9.0188745E2,8.8736755E2,1.9992046E1,3.5767532E2,4.3681713E1,9.603935E3,4.289617E3,5.409244E3,1.8431664E3,2.7720308E3,1.3218215E3,9.46571E2,2.8983406E3],"tree_param":{"num_deleted":"0","num_feature":"10","num_nodes":"31","size_leaf_vector":"1"}},{"base_weights":[6.0432556E-4,-4.1582793E-1,6.0401976E-1,-5.913501E-1,2.4515054E-1,4.0142485E-1,1.027726E0,-6.485833E-1,7.0143443E-1,1.04196034E-1,9.0329736E-1,2.9310533E-1,9.678733E-1,9.5069027E-1,1.1237975E0,-8.673151E-2,-3.894043E-2,5.775209E-2,1.0789211E-1,-1.7324338E-3,7.595234E-2,8.046736E-2,1.086774E-1,1.4551716E-2,5.9659213E-2,8.089245E-2,1.0746856E-1,8.5231744E-2,1.0423453E-1,7.603098E-2,1.1335988E-1],"categories":[],"categories_nodes":[],"categories_segments":[],"categories_sizes":[],"default_left":[0,0,0,0,0,0,0,0,0,0,0,0,0,0,0,0,0,0,0,0,0,0,0,0,0,0,0,0,0,0,0],"id":7,"left_children":[1,3,5,7,9,11,13,15,17,19,21,23,25,27,29,-1,-1,-1,-1,-1,-1,-1,-1,-1,-1,-1,-1,-1,-1,-1,-1],"loss_changes":[1.2757325E4,3.4851167E3,1.7791006E3,1.7566807E3,5.846908E2,8.603286E2,4.8556152E1,1.2882529E3,4.6468384E1,4.1355292E2,1.9243347E1,5.273745E2,3.735034E1,3.2722656E1,9.749268E0,0E0,0E0,0E0,0E0,0E0,0E0,0E0,0E0,0E0,0E0,0E0,0E0,0E0,0E0,0E0,0E0],"parents":[2147483647,0,0,1,1,2,2,3,3,4,4,5,5,6,6,7,7,8,8,9,9,10,10,11,11,12,12,13,13,14,14],"right_children":[2,4,6,8,10,12,14,16,18,20,22,24,26,28,30,-1,-1,-1,-1,-1,-1,-1,-1,-1,-1,-1,-1,-1,-1,-1,-1],"split_conditions":[9.115119E-1,1E0,1E0,1E0,1E0,1E0,1E0,-7.317136E-2,2E0,1E0,2E0,1E0,1.5232676E0,1E0,-1.2272727E0,-8.673151E-2,-3.894043E-2,5.775209E-2,1.0789211E-1,-1.7324338E-3,7.595234E-2,8.046736E-2,1.086774E-1,1.4551716E-2,5.9659213E-2,8.089245E-2,1.0746856E-1,8.5231744E-2,1.0423453E-1,7.603098E-2,1.1335988E-1],"split_indices":[4,7,9,9,9,8,8,4,9,8,9,7,4,7,0,0,0,0,0,0,0,0,0,0,0,0,0,0,0,0,0],"split_type":[0,0,0,0,0,0,0,0,0,0,0,0,0,0,0,0,0,0,0,0,0,0,0,0,0,0,0,0,0,0,0],"sum_hessian":[5.076703E4,3.003762E4,2.072941E4,2.3734938E4,6.302683E3,1.4025212E4,6.7041987E3,2.2729186E4,1.0057512E3,5.191899E3,1.1107843E3,1.1775039E4,2.2501733E3,3.7267603E3,2.9774385E3,1.23251455E4,1.040404E4,7.590996E2,2.4665161E2,4.380564E3,8.1133466E2,7.2595105E2,3.848333E2,7.9233345E3,3.8517043E3,9.078153E2,1.3423582E3,1.8024741E3,1.9242861E3,8.023991E1,2.8971985E3],"tree_param":{"num_deleted":"0","num_feature":"10","num_nodes":"31","size_leaf_vector":"1"}},{"base_weights":[7.121611E-4,-5.424112E-1,3.931647E-1,-6.1974347E-1,7.2838897E-1,2.0249672E-1,9.540455E-1,-6.9714946E-1,1.6568512E-1,7.9720694E-1,2.0428538E-1,1.0310095E-1,8.523314E-1,8.730633E-1,1.0625587E0,-7.496037E-2,5.6043226E-2,-4.4432975E-2,4.3257345E-2,7.0508264E-2,1.1840701E-1,-1.3865066E-2,8.2792275E-2,-1.25110885E-2,3.3581965E-2,7.174864E-2,1.0020496E-1,7.868507E-2,1.00193314E-1,9.706284E-2,1.0966474E-1],"categories":[],"categories_nodes":[],"categories_segments":[],"categories_sizes":[],"default_left":[0,0,0,0,0,0,0,0,0,0,0,0,0,0,0,0,0,0,0,0,0,0,0,0,0,0,0,0,0,0,0],"id":8,"left_children":[1,3,5,7,9,11,13,15,17,19,21,23,25,27,29,-1,-1,-1,-1,-1,-1,-1,-1,-1,-1,-1,-1,-1,-1,-1,-1],"loss_changes":[1.0605276E4,2.0515322E3,3.088709E3,1.1962563E3,4.3034607E1,1.3923174E3,6.3464355E1,1.181834E3,2.8767844E2,3.688324E1,3.0131985E1,9.9310785E2,5.7015625E1,4.5893066E1,8.734619E0,0E0,0E0,0E0,0E0,0E0,0E0,0E0,0E0,0E0,0E0,0E0,0E0,0E0,0E0,0E0,0E0],"parents":[2147483647,0,0,1,1,2,2,3,3,4,4,5,5,6,6,7,7,8,8,9,9,10,10,11,11,12,12,13,13,14,14],"right_children":[2,4,6,8,10,12,14,16,18,20,22,24,26,28,30,-1,-1,-1,-1,-1,-1,-1,-1,-1,-1,-1,-1,-1,-1,-1,-1],"split_conditions":[2.7195957E-1,1E0,1E0,1E0,5.927591E1,1E0,1E0,1E0,1.452986E-1,2E0,2E0,1.173658E0,1.4910758E0,2E0,-2.6201215E-1,-7.496037E-2,5.6043226E-2,-4.4432975E-2,4.3257345E-2,7.0508264E-2,1.1840701E-1,-1.3865066E-2,8.2792275E-2,-1.25110885E-2,3.3581965E-2,7.174864E-2,1.0020496E-1,7.868507E-2,1.00193314E-1,9.706284E-2,1.0966474E-1],"split_indices":[4,8,9,6,3,8,8,9,3,8,7,4,4,9,3,0,0,0,0,0,0,0,0,0,0,0,0,0,0,0,0],"split_type":[0,0,0,0,0,0,0,0,0,0,0,0,0,0,0,0,0,0,0,0,0,0,0,0,0,0,0,0,0,0,0],"sum_hessian":[4.975296E4,2.087006E4,2.88829E4,1.9673385E4,1.1966766E3,2.1556322E4,7.326578E3,1.7908562E4,1.7648224E3,1.0573226E3,1.39354E2,1.8697582E4,2.8587393E3,4.2006943E3,3.1258838E3,1.7191885E4,7.16677E2,5.3692706E2,1.2278953E3,8.5624603E2,2.0107658E2,9.041357E1,4.8940434E1,9.440435E3,9.257148E3,1.507125E3,1.3516141E3,2.5211648E3,1.6795297E3,8.5353955E2,2.2723442E3],"tree_param":{"num_deleted":"0","num_feature":"10","num_nodes":"31","size_leaf_vector":"1"}},{"base_weights":[7.799457E-4,-3.5883492E-1,5.053938E-1,-5.147513E-1,2.2411084E-1,3.2517964E-1,9.2077386E-1,-5.643753E-1,6.376312E-1,1.871652E-2,5.9289217E-1,1.5838598E-1,6.1344165E-1,8.0498064E-1,9.932949E-1,-3.53514E-2,-7.9167336E-2,5.2799653E-2,1.1805675E-1,-7.918388E-3,6.3136056E-2,4.9327623E-2,8.939133E-2,2.5010094E-2,-3.5374895E-2,5.179317E-2,1.0064079E-1,7.071999E-2,9.272388E-2,9.080794E-2,1.0430058E-1],"categories":[],"categories_nodes":[],"categories_segments":[],"categories_sizes":[],"default_left":[0,0,0,0,0,0,0,0,0,0,0,0,0,0,0,0,0,0,0,0,0,0,0,0,0,0,0,0,0,0,0],"id":9,"left_children":[1,3,5,7,9,11,13,15,17,19,21,23,25,27,29,-1,-1,-1,-1,-1,-1,-1,-1,-1,-1,-1,-1,-1,-1,-1,-1],"loss_changes":[8.858317E3,2.5907422E3,1.5202412E3,1.2863682E3,4.55628E2,6.811E2,5.0807617E1,1.0330718E3,5.4667877E1,2.3184091E2,6.408386E1,4.2170593E2,1.9437146E2,2.7699951E1,1.5042969E1,0E0,0E0,0E0,0E0,0E0,0E0,0E0,0E0,0E0,0E0,0E0,0E0,0E0,0E0,0E0,0E0],"parents":[2147483647,0,0,1,1,2,2,3,3,4,4,5,5,6,6,7,7,8,8,9,9,10,10,11,11,12,12,13,13,14,14],"right_children":[2,4,6,8,10,12,14,16,18,20,22,24,26,28,30,-1,-1,-1,-1,-1,-1,-1,-1,-1,-1,-1,-1,-1,-1,-1,-1],"split_conditions":[8.731265E-1,1E0,1E0,1E0,2E0,1E0,1E0,9.090909E-2,2E0,1E0,1E0,3.6363637E-1,1.6088289E0,2E0,-1.3211995E-1,-3.53514E-2,-7.9167336E-2,5.2799653E-2,1.1805675E-1,-7.918388E-3,6.3136056E-2,4.9327623E-2,8.939133E-2,2.5010094E-2,-3.5374895E-2,5.179317E-2,1.0064079E-1,7.071999E-2,9.272388E-2,9.080794E-2,1.0430058E-1],"split_indices":[4,7,9,8,7,7,7,0,8,8,9,0,4,9,3,0,0,0,0,0,0,0,0,0,0,0,0,0,0,0,0],"split_type":[0,0,0,0,0,0,0,0,0,0,0,0,0,0,0,0,0,0,0,0,0,0,0,0,0,0,0,0,0,0,0],"sum_hessian":[4.8813125E4,2.8501627E4,2.0311498E4,2.248724E4,6.0143867E3,1.4166913E4,6.144585E3,2.155936E4,9.278801E2,3.863593E3,2.1507937E3,8.975231E3,5.191682E3,2.3709778E3,3.773607E3,1.1185386E4,1.0373975E4,7.736335E2,1.5424666E2,3.3320093E3,5.315837E2,1.6179945E3,5.3279913E2,7.6124736E3,1.3627573E3,4.178436E3,1.01324585E3,1.321134E3,1.0498439E3,1.397409E3,2.3761978E3],"tree_param":{"num_deleted":"0","num_feature":"10","num_nodes":"31","size_leaf_vector":"1"}},{"base_weights":[8.645451E-4,-4.6858495E-1,3.3721823E-1,-5.352549E-1,6.139164E-1,1.7308497E-1,8.582554E-1,-5.833352E-1,6.162113E-1,6.7842E-1,1.2690973E-1,8.708521E-2,7.5948447E-1,7.6709354E-1,9.602836E-1,-6.317716E-2,5.449319E-2,1.6900499E-1,4.9533688E-2,5.9305675E-2,1.0490425E-1,-1.8527998E-2,7.262219E-2,1.3761482E-3,6.592953E-2,6.2468212E-2,9.1286145E-2,6.887951E-2,9.3818255E-2,8.872534E-2,1.0190498E-1],"categories":[],"categories_nodes":[],"categories_segments":[],"categories_sizes":[],"default_left":[0,0,0,0,0,0,0,0,0,0,0,0,0,0,0,0,0,0,0,0,0,0,0,0,0,0,0,0,0,0,0],"id":10,"left_children":[1,3,5,7,9,11,13,15,17,19,21,23,25,27,29,-1,-1,-1,-1,-1,-1,-1,-1,-1,-1,-1,-1,-1,-1,-1,-1],"loss_changes":[7.564729E3,1.4435532E3,2.3867468E3,1.0432778E3,3.6373657E1,1.0703552E3,6.1448242E1,9.8858105E2,9.7232635E1,3.1795532E1,2.5762575E1,7.766973E2,5.555664E1,4.6720215E1,1.2618652E1,0E0,0E0,0E0,0E0,0E0,0E0,0E0,0E0,0E0,0E0,0E0,0E0,0E0,0E0,0E0,0E0],"parents":[2147483647,0,0,1,1,2,2,3,3,4,4,5,5,6,6,7,7,8,8,9,9,10,10,11,11,12,12,13,13,14,14],"right_children":[2,4,6,8,10,12,14,16,18,20,22,24,26,28,30,-1,-1,-1,-1,-1,-1,-1,-1,-1,-1,-1,-1,-1,-1,-1,-1],"split_conditions":[2.7195957E-1,1E0,1E0,1.5E0,5.927591E1,1E0,2E0,1E0,-6.818182E-1,2E0,2E0,2E0,1.4910758E0,2E0,3E0,-6.317716E-2,5.449319E-2,1.6900499E-1,4.9533688E-2,5.9305675E-2,1.0490425E-1,-1.8527998E-2,7.262219E-2,1.3761482E-3,6.592953E-2,6.2468212E-2,9.1286145E-2,6.887951E-2,9.3818255E-2,8.872534E-2,1.0190498E-1],"split_indices":[4,8,9,6,3,8,9,9,0,8,7,7,4,7,9,0,0,0,0,0,0,0,0,0,0,0,0,0,0,0,0],"split_type":[0,0,0,0,0,0,0,0,0,0,0,0,0,0,0,0,0,0,0,0,0,0,0,0,0,0,0,0,0,0,0],"sum_hessian":[4.7906027E4,1.9996492E4,2.7909535E4,1.883686E4,1.1596334E3,2.1224791E4,6.684744E3,1.808231E4,7.5454736E2,1.0236578E3,1.3597566E2,1.8511145E4,2.713646E3,3.5348687E3,3.1498755E3,1.7338416E4,7.438954E2,7.502748E1,6.795199E2,8.3413635E2,1.8952147E2,8.985818E1,4.611749E1,1.6409441E4,2.1017024E3,1.4469774E3,1.2666687E3,2.4284988E3,1.10637E3,1.4116647E3,1.7382108E3],"tree_param":{"num_deleted":"0","num_feature":"10","num_nodes":"31","size_leaf_vector":"1"}},{"base_weights":[9.4595086E-4,-2.850215E-1,4.7629857E-1,-4.293495E-1,2.1733911E-1,3.188868E-1,8.375755E-1,-6.3394696E-1,-2.0286973E-1,4.122659E-2,5.297097E-1,2.4090178E-1,8.1861335E-1,7.515295E-1,9.481519E-1,-6.761552E-2,5.4766294E-2,-2.4833582E-2,7.274115E-2,-3.9812652E-3,6.322961E-2,3.899985E-2,7.244898E-2,1.6504692E-2,6.8436585E-2,8.334854E-2,-1.3253303E-1,7.022988E-2,9.495428E-2,4.9620185E-2,9.607907E-2],"categories":[],"categories_nodes":[],"categories_segments":[],"categories_sizes":[],"default_left":[0,0,0,0,0,0,0,0,0,0,0,0,0,0,0,0,0,0,0,0,0,0,0,0,0,0,0,0,0,0,0],"id":11,"left_children":[1,3,5,7,9,11,13,15,17,19,21,23,25,27,29,-1,-1,-1,-1,-1,-1,-1,-1,-1,-1,-1,-1,-1,-1,-1,-1],"loss_changes":[6.391658E3,2.1287024E3,1.004136E3,1.0566548E3,3.604651E2,4.7927588E2,5.0279785E1,5.9793506E2,4.5807205E2,2.0079382E2,6.400543E1,3.579356E2,5.4046143E1,2.8761475E1,1.2897949E1,0E0,0E0,0E0,0E0,0E0,0E0,0E0,0E0,0E0,0E0,0E0,0E0,0E0,0E0,0E0,0E0],"parents":[2147483647,0,0,1,1,2,2,3,3,4,4,5,5,6,6,7,7,8,8,9,9,10,10,11,11,12,12,13,13,14,14],"right_children":[2,4,6,8,10,12,14,16,18,20,22,24,26,28,30,-1,-1,-1,-1,-1,-1,-1,-1,-1,-1,-1,-1,-1,-1,-1,-1],"split_conditions":[1.0278347E0,1E0,1E0,-4.1437674E-2,2E0,1.6088289E0,1E0,1E0,1.5E0,1E0,3E0,2E0,1E0,3E0,-1.2272727E0,-6.761552E-2,5.4766294E-2,-2.4833582E-2,7.274115E-2,-3.9812652E-3,6.322961E-2,3.899985E-2,7.244898E-2,1.6504692E-2,6.8436585E-2,8.334854E-2,-1.3253303E-1,7.022988E-2,9.495428E-2,4.9620185E-2,9.607907E-2],"split_indices":[4,7,9,4,7,4,8,9,6,9,7,7,0,9,0,0,0,0,0,0,0,0,0,0,0,0,0,0,0,0,0],"split_type":[0,0,0,0,0,0,0,0,0,0,0,0,0,0,0,0,0,0,0,0,0,0,0,0,0,0,0,0,0,0,0],"sum_hessian":[4.701783E4,2.9357217E4,1.7660613E4,2.2805385E4,6.551833E3,1.2302276E4,5.358336E3,1.1980571E4,1.0824813E4,4.190428E3,2.3614043E3,1.0642881E4,1.659396E3,3.017803E3,2.340533E3,1.1567786E4,4.1278433E2,1.0321117E4,5.03696E2,3.6859895E3,5.0443903E2,1.376835E3,9.8456946E2,9.089488E3,1.5533921E3,1.6485714E3,1.0824534E1,2.4205457E3,5.972574E2,6.476746E1,2.2757656E3],"tree_param":{"num_deleted":"0","num_feature":"10","num_nodes":"31","size_leaf_vector":"1"}},{"base_weights":[9.5808384E-4,-2.610676E-1,4.388062E-1,-3.3291686E-1,5.9865063E-1,2.899834E-1,7.944192E-1,-1.7121485E-1,-6.294138E-1,5.1706946E-1,8.986878E-1,2.1191347E-1,7.3919517E-1,7.0776355E-1,9.075154E-1,-2.1677697E-2,7.301333E-2,-6.795274E-2,4.756335E-2,4.4014223E-2,7.495158E-2,9.148033E-2,-5.667284E-2,2.7586868E-2,-3.8095653E-2,4.586389E-2,8.0256656E-2,6.49691E-2,8.839272E-2,4.6038073E-2,9.204279E-2],"categories":[],"categories_nodes":[],"categories_segments":[],"categories_sizes":[],"default_left":[0,0,0,0,0,0,0,0,0,0,0,0,0,0,0,0,0,0,0,0,0,0,0,0,0,0,0,0,0,0,0],"id":12,"left_children":[1,3,5,7,9,11,13,15,17,19,21,23,25,27,29,-1,-1,-1,-1,-1,-1,-1,-1,-1,-1,-1,-1,-1,-1,-1,-1],"loss_changes":[5.29777E3,1.784664E3,9.1471924E2,1.278147E3,5.408246E1,4.273202E2,4.933911E1,7.087219E2,5.213523E2,3.10419E1,1.1736908E1,3.939091E2,3.1712097E1,2.9012085E1,1.232959E1,0E0,0E0,0E0,0E0,0E0,0E0,0E0,0E0,0E0,0E0,0E0,0E0,0E0,0E0,0E0,0E0],"parents":[2147483647,0,0,1,1,2,2,3,3,4,4,5,5,6,6,7,7,8,8,9,9,10,10,11,11,12,12,13,13,14,14],"right_children":[2,4,6,8,10,12,14,16,18,20,22,24,26,28,30,-1,-1,-1,-1,-1,-1,-1,-1,-1,-1,-1,-1,-1,-1,-1,-1],"split_conditions":[1.0278347E0,1E0,1E0,2.7272728E-1,2E0,1E0,1E0,1.5E0,1E0,1E0,2.7058823E0,5E-1,1.3435719E0,2E0,-1.2272727E0,-2.1677697E-2,7.301333E-2,-6.795274E-2,4.756335E-2,4.4014223E-2,7.495158E-2,9.148033E-2,-5.667284E-2,2.7586868E-2,-3.8095653E-2,4.586389E-2,8.0256656E-2,6.49691E-2,8.839272E-2,4.6038073E-2,9.204279E-2],"split_indices":[4,8,9,0,8,8,8,6,9,9,2,0,4,7,0,0,0,0,0,0,0,0,0,0,0,0,0,0,0,0,0],"split_type":[0,0,0,0,0,0,0,0,0,0,0,0,0,0,0,0,0,0,0,0,0,0,0,0,0,0,0,0,0,0,0],"sum_hessian":[4.6175004E4,2.88878E4,1.7287203E4,2.666033E4,2.2274714E3,1.218827E4,5.0989336E3,1.725271E4,9.407619E3,1.7534308E3,4.7404065E2,1.0384914E4,1.8033549E3,2.891041E3,2.2078926E3,1.6423293E4,8.2941907E2,8.999863E3,4.0775592E2,1.3196056E3,4.3382516E2,4.692559E2,4.784756E0,9.374216E3,1.0106987E3,3.338001E2,1.4695547E3,2.1778108E3,7.132301E2,6.2999226E1,2.1448933E3],"tree_param":{"num_deleted":"0","num_feature":"10","num_nodes":"31","size_leaf_vector":"1"}},{"base_weights":[1.028395E-3,-3.7739778E-1,2.6838896E-1,-4.9320883E-1,1.255509E-1,1.3710305E-1,7.356423E-1,-5.5943334E-1,1.8569855E-1,-2.0364821E-2,4.455749E-1,6.8268925E-2,6.40206E-1,6.4046013E-1,8.4635544E-1,-6.0179062E-2,4.9293336E-2,-7.241489E-2,3.3483863E-2,-8.366731E-3,8.02389E-2,8.7313384E-2,3.3409245E-2,8.8461535E-4,5.534484E-2,5.0639786E-2,7.9790555E-2,5.619495E-2,8.193511E-2,7.1324155E-2,8.9057945E-2],"categories":[],"categories_nodes":[],"categories_segments":[],"categories_sizes":[],"default_left":[0,0,0,0,0,0,0,0,0,0,0,0,0,0,0,0,0,0,0,0,0,0,0,0,0,0,0,0,0,0,0],"id":13,"left_children":[1,3,5,7,9,11,13,15,17,19,21,23,25,27,29,-1,-1,-1,-1,-1,-1,-1,-1,-1,-1,-1,-1,-1,-1,-1,-1],"loss_changes":[4.5989756E3,1.096198E3,1.6338729E3,6.878491E2,1.6452261E2,7.2010254E2,6.102368E1,6.2156396E2,1.848233E2,1.2614305E2,5.2299026E1,5.2740784E2,5.240503E1,4.3718994E1,1.5245728E1,0E0,0E0,0E0,0E0,0E0,0E0,0E0,0E0,0E0,0E0,0E0,0E0,0E0,0E0,0E0,0E0],"parents":[2147483647,0,0,1,1,2,2,3,3,4,4,5,5,6,6,7,7,8,8,9,9,10,10,11,11,12,12,13,13,14,14],"right_children":[2,4,6,8,10,12,14,16,18,20,22,24,26,28,30,-1,-1,-1,-1,-1,-1,-1,-1,-1,-1,-1,-1,-1,-1,-1,-1],"split_conditions":[2.7195957E-1,1E0,1E0,1E0,2E0,1E0,2E0,1E0,-3.9686214E-2,1.5E0,-5.4545456E-1,2E0,2.2690624E-1,2E0,-3.6300892E-1,-6.0179062E-2,4.9293336E-2,-7.241489E-2,3.3483863E-2,-8.366731E-3,8.02389E-2,8.7313384E-2,3.3409245E-2,8.8461535E-4,5.534484E-2,5.0639786E-2,7.9790555E-2,5.619495E-2,8.193511E-2,7.1324155E-2,8.9057945E-2],"split_indices":[4,7,9,6,7,8,9,9,3,6,0,7,3,7,3,0,0,0,0,0,0,0,0,0,0,0,0,0,0,0,0],"split_type":[0,0,0,0,0,0,0,0,0,0,0,0,0,0,0,0,0,0,0,0,0,0,0,0,0,0,0,0,0,0,0],"sum_hessian":[4.5453098E4,1.8817754E4,2.6635346E4,1.5295718E4,3.5220356E3,2.0794057E4,5.841289E3,1.3936452E4,1.3592654E3,2.4197026E3,1.1023329E3,1.8292436E4,2.5016199E3,3.1446013E3,2.6966877E3,1.3397632E4,5.388206E2,1.9088605E2,1.1683793E3,2.247666E3,1.720366E2,2.2656726E2,8.7576556E2,1.6297414E4,1.9950219E3,1.3556019E3,1.146018E3,2.1883374E3,9.56264E2,6.76763E2,2.0199247E3],"tree_param":{"num_deleted":"0","num_feature":"10","num_nodes":"31","size_leaf_vector":"1"}},{"base_weights":[1.0054053E-3,-3.863935E-1,2.2167893E-1,-4.412905E-1,5.22192E-1,1.0316068E-1,6.916278E-1,-5.2503633E-1,-5.1243543E-3,5.915506E-1,-1.09200865E-1,-1.6943477E-2,3.675627E-1,5.9028494E-1,8.125642E-1,-6.491597E-2,-2.2661898E-2,-1.2402728E-2,3.2242697E-2,5.1865455E-2,9.4303876E-2,-4.865957E-2,5.7136204E-2,1.1130793E-2,-2.8653095E-2,3.0281225E-2,8.285655E-2,5.1367253E-2,7.718939E-2,6.693967E-2,8.537692E-2],"categories":[],"categories_nodes":[],"categories_segments":[],"categories_sizes":[],"default_left":[0,0,0,0,0,0,0,0,0,0,0,0,0,0,0,0,0,0,0,0,0,0,0,0,0,0,0,0,0,0,0],"id":14,"left_children":[1,3,5,7,9,11,13,15,17,19,21,23,25,27,29,-1,-1,-1,-1,-1,-1,-1,-1,-1,-1,-1,-1,-1,-1,-1,-1],"loss_changes":[3.818139E3,8.086792E2,1.584756E3,5.5832666E2,4.052762E1,7.2164496E2,6.975391E1,4.7483228E2,9.597096E1,2.0845734E1,2.3983524E1,5.403467E2,2.1163446E2,4.3034546E1,1.4825806E1,0E0,0E0,0E0,0E0,0E0,0E0,0E0,0E0,0E0,0E0,0E0,0E0,0E0,0E0,0E0,0E0],"parents":[2147483647,0,0,1,1,2,2,3,3,4,4,5,5,6,6,7,7,8,8,9,9,10,10,11,11,12,12,13,13,14,14],"right_children":[2,4,6,8,10,12,14,16,18,20,22,24,26,28,30,-1,-1,-1,-1,-1,-1,-1,-1,-1,-1,-1,-1,-1,-1,-1,-1],"split_conditions":[1.2281922E-1,1E0,1E0,1E0,9.8663055E1,1E0,2E0,5E-1,2E0,2E0,2E0,4.5454547E-2,1.6088289E0,2E0,-3.835313E-1,-6.491597E-2,-2.2661898E-2,-1.2402728E-2,3.2242697E-2,5.1865455E-2,9.4303876E-2,-4.865957E-2,5.7136204E-2,1.1130793E-2,-2.8653095E-2,3.0281225E-2,8.285655E-2,5.1367253E-2,7.718939E-2,6.693967E-2,8.537692E-2],"split_indices":[4,8,9,7,3,7,9,6,7,8,7,0,4,7,3,0,0,0,0,0,0,0,0,0,0,0,0,0,0,0,0],"split_type":[0,0,0,0,0,0,0,0,0,0,0,0,0,0,0,0,0,0,0,0,0,0,0,0,0,0,0,0,0,0,0],"sum_hessian":[4.4660508E4,1.6207322E4,2.8453186E4,1.5284352E4,9.229709E2,2.272364E4,5.729544E3,1.2822224E4,2.462128E3,8.3167444E2,9.129644E1,1.5626339E4,7.097302E3,3.1204963E3,2.6090479E3,9.054805E3,3.767419E3,1.8068522E3,6.552759E2,6.9086896E2,1.4080551E2,5.89125E1,3.2383938E1,1.05892705E4,5.037069E3,6.2246685E3,8.7263324E2,2.1973599E3,9.231363E2,5.869447E2,2.022103E3],"tree_param":{"num_deleted":"0","num_feature":"10","num_nodes":"31","size_leaf_vector":"1"}},{"base_weights":[9.7056996E-4,-2.0893031E-1,3.56203E-1,-2.6480418E-1,5.358777E-1,2.3715657E-1,6.7654157E-1,-1.24073215E-1,-5.3373253E-1,4.21073E-1,8.2240933E-1,1.707093E-1,6.8782747E-1,5.8239007E-1,8.034235E-1,-3.1163929E-2,5.976864E-3,-5.7904333E-2,3.7422445E-2,4.4627838E-2,-4.613247E-2,9.8956615E-2,7.162126E-2,7.035067E-3,4.212462E-2,7.3054604E-2,-7.279822E-3,5.2945353E-2,8.067392E-2,4.661222E-2,8.2468584E-2],"categories":[],"categories_nodes":[],"categories_segments":[],"categories_sizes":[],"default_left":[0,0,0,0,0,0,0,0,0,0,0,0,0,0,0,0,0,0,0,0,0,0,0,0,0,0,0,0,0,0,0],"id":15,"left_children":[1,3,5,7,9,11,13,15,17,19,21,23,25,27,29,-1,-1,-1,-1,-1,-1,-1,-1,-1,-1,-1,-1,-1,-1,-1,-1],"loss_changes":[3.2761274E3,1.1494828E3,6.221726E2,9.722728E2,6.3062744E1,3.56214E2,5.2345337E1,5.8163586E2,3.6330273E2,3.0859848E1,9.060883E0,2.607474E2,4.9723694E1,2.9755615E1,1.3102173E1,0E0,0E0,0E0,0E0,0E0,0E0,0E0,0E0,0E0,0E0,0E0,0E0,0E0,0E0,0E0,0E0],"parents":[2147483647,0,0,1,1,2,2,3,3,4,4,5,5,6,6,7,7,8,8,9,9,10,10,11,11,12,12,13,13,14,14],"right_children":[2,4,6,8,10,12,14,16,18,20,22,24,26,28,30,-1,-1,-1,-1,-1,-1,-1,-1,-1,-1,-1,-1,-1,-1,-1,-1],"split_conditions":[1.0278347E0,1E0,1E0,2.7272728E-1,2E0,1.6088289E0,1E0,1.6666667E-1,1E0,3.5005454E3,-7.549097E-3,3.3333334E-1,1.4117647E0,3E0,-1.1363636E0,-3.1163929E-2,5.976864E-3,-5.7904333E-2,3.7422445E-2,4.4627838E-2,-4.613247E-2,9.8956615E-2,7.162126E-2,7.035067E-3,4.212462E-2,7.3054604E-2,-7.279822E-3,5.2945353E-2,8.067392E-2,4.661222E-2,8.2468584E-2],"split_indices":[4,9,9,0,9,4,8,5,8,3,4,5,2,9,0,0,0,0,0,0,0,0,0,0,0,0,0,0,0,0,0],"split_type":[0,0,0,0,0,0,0,0,0,0,0,0,0,0,0,0,0,0,0,0,0,0,0,0,0,0,0,0,0,0,0],"sum_hessian":[4.3935355E4,2.7617219E4,1.6318139E4,2.569061E4,1.9266093E3,1.1898191E4,4.4199478E3,1.686603E4,8.824579E3,1.377254E3,5.493552E2,1.0370531E4,1.5276603E3,2.5404336E3,1.8795142E3,8.34811E3,8.517919E3,8.405475E3,4.1910544E2,1.3394863E3,3.7767696E1,2.1019069E2,3.3916455E2,7.4053994E3,2.9651313E3,1.446463E3,8.119722E1,2.0581582E3,4.8227536E2,1.1281189E2,1.7667023E3],"tree_param":{"num_deleted":"0","num_feature":"10","num_nodes":"31","size_leaf_vector":"1"}},{"base_weights":[9.873452E-4,-3.5526988E-1,1.8201032E-1,-4.0289393E-1,4.8416686E-1,9.201463E-2,6.479081E-1,-4.660111E-1,1.8798308E-1,3.3115616E-1,9.0948546E-1,2.5605537E-2,5.2341866E-1,5.674951E-1,8.1473213E-1,-5.4302104E-2,-6.0556354E-3,-3.409761E-2,4.1466158E-2,-1.05246E-2,4.3387186E-2,-4.5750838E-2,9.332626E-2,-2.2897813E-3,4.591083E-2,4.3163072E-2,6.823259E-2,4.496089E-2,6.924413E-2,-4.876963E-3,8.2877375E-2],"categories":[],"categories_nodes":[],"categories_segments":[],"categories_sizes":[],"default_left":[0,0,0,0,0,0,0,0,0,0,0,0,0,0,0,0,0,0,0,0,0,0,0,0,0,0,0,0,0,0,0],"id":16,"left_children":[1,3,5,7,9,11,13,15,17,19,21,23,25,27,29,-1,-1,-1,-1,-1,-1,-1,-1,-1,-1,-1,-1,-1,-1,-1,-1],"loss_changes":[2.794555E3,5.8385876E2,1.2046724E3,5.1536865E2,5.0738617E1,6.8992444E2,6.1936523E1,3.8974976E2,1.6011122E2,2.597063E1,7.1528015E0,4.3884576E2,4.6563232E1,4.5967224E1,1.8356201E1,0E0,0E0,0E0,0E0,0E0,0E0,0E0,0E0,0E0,0E0,0E0,0E0,0E0,0E0,0E0,0E0],"parents":[2147483647,0,0,1,1,2,2,3,3,4,4,5,5,6,6,7,7,8,8,9,9,10,10,11,11,12,12,13,13,14,14],"right_children":[2,4,6,8,10,12,14,16,18,20,22,24,26,28,30,-1,-1,-1,-1,-1,-1,-1,-1,-1,-1,-1,-1,-1,-1,-1,-1],"split_conditions":[5.790903E-2,1E0,1E0,1E0,2E0,1E0,2E0,1E0,1.452986E-1,-3.3380127E-1,-5.322536E-1,2E0,2E0,1.4910758E0,-1.3181819E0,-5.4302104E-2,-6.0556354E-3,-3.409761E-2,4.1466158E-2,-1.05246E-2,4.3387186E-2,-4.5750838E-2,9.332626E-2,-2.2897813E-3,4.591083E-2,4.3163072E-2,6.823259E-2,4.496089E-2,6.924413E-2,-4.876963E-3,8.2877375E-2],"split_indices":[4,9,8,6,9,9,8,7,3,3,3,7,9,4,0,0,0,0,0,0,0,0,0,0,0,0,0,0,0,0,0],"split_type":[0,0,0,0,0,0,0,0,0,0,0,0,0,0,0,0,0,0,0,0,0,0,0,0,0,0,0,0,0,0,0],"sum_hessian":[4.3330652E4,1.4598843E4,2.8731809E4,1.381556E4,7.83283E2,2.4081312E4,4.650497E3,1.2482407E4,1.3331528E3,5.77355E2,2.0592801E2,2.0869742E4,3.211569E3,3.1409094E3,1.5095876E3,1.0489708E4,1.9926991E3,3.9977203E2,9.3338074E2,1.09996155E2,4.6735883E2,3.2087672E0,2.0271925E2,1.8770512E4,2.0992305E3,2.0380608E3,1.1735082E3,1.618479E3,1.5224305E3,2.4115353E1,1.4854723E3],"tree_param":{"num_deleted":"0","num_feature":"10","num_nodes":"31","size_leaf_vector":"1"}},{"base_weights":[9.5939444E-4,-1.6387258E-1,3.3497703E-1,-2.706585E-1,1.735067E-1,2.4376144E-1,6.683021E-1,-1.24650344E-1,-4.7610214E-1,1.00802496E-1,5.82749E-1,2.9884103E-1,-3.1530598E-1,5.667829E-1,7.642765E-1,-2.8345728E-2,5.5122785E-3,-7.18166E-2,-2.6103074E-2,4.068862E-3,4.9430244E-2,4.4780307E-2,7.627537E-2,2.3984205E-2,6.4999096E-2,-4.452551E-2,4.7498163E-2,5.0744362E-2,7.4241064E-2,5.1313806E-2,8.01195E-2],"categories":[],"categories_nodes":[],"categories_segments":[],"categories_sizes":[],"default_left":[0,0,0,0,0,0,0,0,0,0,0,0,0,0,0,0,0,0,0,0,0,0,0,0,0,0,0,0,0,0,0],"id":17,"left_children":[1,3,5,7,9,11,13,15,17,19,21,23,25,27,29,-1,-1,-1,-1,-1,-1,-1,-1,-1,-1,-1,-1,-1,-1,-1,-1],"loss_changes":[2.349797E3,1.029607E3,4.2861096E2,6.510753E2,2.0438193E2,3.4109607E2,2.908313E1,3.6231583E2,4.6928247E2,1.3802414E2,2.483197E1,2.0870288E2,1.0225642E2,1.50061035E1,1.4000366E1,0E0,0E0,0E0,0E0,0E0,0E0,0E0,0E0,0E0,0E0,0E0,0E0,0E0,0E0,0E0,0E0],"parents":[2147483647,0,0,1,1,2,2,3,3,4,4,5,5,6,6,7,7,8,8,9,9,10,10,11,11,12,12,13,13,14,14],"right_children":[2,4,6,8,10,12,14,16,18,20,22,24,26,28,30,-1,-1,-1,-1,-1,-1,-1,-1,-1,-1,-1,-1,-1,-1,-1,-1],"split_conditions":[1.173658E0,1E0,1E0,1.3636364E-1,3E0,5E-1,7.323992E-2,8.368075E-2,1.6666667E-1,1E0,2.8339255E-1,1.6088289E0,2E0,3E0,1.3652958E0,-2.8345728E-2,5.5122785E-3,-7.18166E-2,-2.6103074E-2,4.068862E-3,4.9430244E-2,4.4780307E-2,7.627537E-2,2.3984205E-2,6.4999096E-2,-4.452551E-2,4.7498163E-2,5.0744362E-2,7.4241064E-2,5.1313806E-2,8.01195E-2],"split_indices":[4,7,8,0,7,0,3,3,5,9,3,4,7,9,4,0,0,0,0,0,0,0,0,0,0,0,0,0,0,0,0],"split_type":[0,0,0,0,0,0,0,0,0,0,0,0,0,0,0,0,0,0,0,0,0,0,0,0,0,0,0,0,0,0,0],"sum_hessian":[4.2677523E4,2.8576178E4,1.4101346E4,2.1706062E4,6.8701157E3,1.1072931E4,3.0284148E3,1.2689372E4,9.01669E3,5.8347803E3,1.0353353E3,1.0080282E4,9.9264874E2,1.4750504E3,1.5533644E3,6.737267E3,5.9521045E3,4.2410405E3,4.77565E3,5.0625E3,7.7228046E2,5.9372156E2,4.4161374E2,8.631697E3,1.448585E3,8.5284906E2,1.3979968E2,1.1054437E3,3.696067E2,2.0099463E2,1.3523698E3],"tree_param":{"num_deleted":"0","num_feature":"10","num_nodes":"31","size_leaf_vector":"1"}},{"base_weights":[9.20455E-4,-3.0884686E-1,1.5592887E-1,-3.5702634E-1,4.6868822E-1,7.041196E-2,5.540802E-1,-4.1486108E-1,1.7193122E-1,5.517863E-1,-2.9733917E-1,2.0738425E-2,4.9656537E-1,4.548711E-1,6.820957E-1,8.382808E-3,-4.7333557E-2,-3.6690872E-2,3.8733568E-2,5.7745077E-2,-6.296009E-2,1.3259078E-2,-2.2201803E-1,-6.8047165E-4,6.6564254E-2,3.7166856E-2,6.512708E-2,3.8058944E-2,6.431729E-2,5.198596E-2,7.299014E-2],"categories":[],"categories_nodes":[],"categories_segments":[],"categories_sizes":[],"default_left":[0,0,0,0,0,0,0,0,0,0,0,0,0,0,0,0,0,0,0,0,0,0,0,0,0,0,0,0,0,0,0],"id":18,"left_children":[1,3,5,7,9,11,13,15,17,19,21,23,25,27,29,-1,-1,-1,-1,-1,-1,-1,-1,-1,-1,-1,-1,-1,-1,-1,-1],"loss_changes":[2.0236752E3,5.267229E2,9.563669E2,4.050016E2,5.239868E1,4.8949246E2,6.2763428E1,3.479873E2,1.5164626E2,2.2819183E1,6.721861E1,3.678891E2,4.6401245E1,3.8933228E1,1.6422302E1,0E0,0E0,0E0,0E0,0E0,0E0,0E0,0E0,0E0,0E0,0E0,0E0,0E0,0E0,0E0,0E0],"parents":[2147483647,0,0,1,1,2,2,3,3,4,4,5,5,6,6,7,7,8,8,9,9,10,10,11,11,12,12,13,13,14,14],"right_children":[2,4,6,8,10,12,14,16,18,20,22,24,26,28,30,-1,-1,-1,-1,-1,-1,-1,-1,-1,-1,-1,-1,-1,-1,-1,-1],"split_conditions":[5.790903E-2,1E0,1E0,1E0,9.8663055E1,1E0,2E0,-7.7272725E-1,1.452986E-1,3.6641542E-2,-1.6060056E-1,1.5E0,2.2690624E-1,2E0,-3.835313E-1,8.382808E-3,-4.7333557E-2,-3.6690872E-2,3.8733568E-2,5.7745077E-2,-6.296009E-2,1.3259078E-2,-2.2201803E-1,-6.8047165E-4,6.6564254E-2,3.7166856E-2,6.512708E-2,3.8058944E-2,6.431729E-2,5.198596E-2,7.299014E-2],"split_indices":[4,8,9,6,3,8,9,0,3,4,4,6,3,7,3,0,0,0,0,0,0,0,0,0,0,0,0,0,0,0,0],"split_type":[0,0,0,0,0,0,0,0,0,0,0,0,0,0,0,0,0,0,0,0,0,0,0,0,0,0,0,0,0,0,0],"sum_hessian":[4.2143375E4,1.4055003E4,2.8088373E4,1.3235419E4,8.195839E2,2.3123064E4,4.9653096E3,1.1931119E4,1.3042992E3,7.3962915E2,7.995474E1,2.0710092E4,2.4129724E3,2.7999583E3,2.165351E3,1.2521287E3,1.067899E4,3.7229358E2,9.320057E2,7.2440344E2,1.5225725E1,6.610525E1,1.3849494E1,1.9862764E4,8.473273E2,1.3369933E3,1.0759792E3,2.0100507E3,7.899075E2,4.955382E2,1.669813E3],"tree_param":{"num_deleted":"0","num_feature":"10","num_nodes":"31","size_leaf_vector":"1"}},{"base_weights":[8.851484E-4,-1.5398525E-1,2.6665953E-1,-2.0183243E-1,4.312123E-1,1.3185132E-1,4.681805E-1,-8.648189E-2,-4.3214586E-1,3.619005E-1,7.0970327E-1,1.936465E-1,-2.427782E-1,4.0026763E-1,7.2031486E-1,-1.6420333E-2,2.5863264E-2,-4.879236E-2,8.267283E-3,5.344261E-2,2.4185615E-2,7.2818734E-2,-7.7459194E-2,2.6078103E-2,-7.6208725E-3,-4.501012E-2,1.6840208E-2,3.0073842E-2,5.9056837E-2,2.3661595E-2,7.358107E-2],"categories":[],"categories_nodes":[],"categories_segments":[],"categories_sizes":[],"default_left":[0,0,0,0,0,0,0,0,0,0,0,0,0,0,0,0,0,0,0,0,0,0,0,0,0,0,0,0,0,0,0],"id":19,"left_children":[1,3,5,7,9,11,13,15,17,19,21,23,25,27,29,-1,-1,-1,-1,-1,-1,-1,-1,-1,-1,-1,-1,-1,-1,-1,-1],"loss_changes":[1.7140166E3,7.367859E2,4.1644604E2,6.4613776E2,3.8135193E1,2.1274559E2,1.04930786E2,4.3476697E2,2.331062E2,3.289644E1,1.1410126E1,1.429118E2,1.11014E2,9.155444E1,9.589783E0,0E0,0E0,0E0,0E0,0E0,0E0,0E0,0E0,0E0,0E0,0E0,0E0,0E0,0E0,0E0,0E0],"parents":[2147483647,0,0,1,1,2,2,3,3,4,4,5,5,6,6,7,7,8,8,9,9,10,10,11,11,12,12,13,13,14,14],"right_children":[2,4,6,8,10,12,14,16,18,20,22,24,26,28,30,-1,-1,-1,-1,-1,-1,-1,-1,-1,-1,-1,-1,-1,-1,-1,-1],"split_conditions":[1.0278347E0,1E0,1E0,2.7272728E-1,2E0,3.6363637E-1,1.6088289E0,1E0,1E0,0E0,2.7058823E0,3.2352942E-1,1.6666667E-1,1E0,-4.846192E-1,-1.6420333E-2,2.5863264E-2,-4.879236E-2,8.267283E-3,5.344261E-2,2.4185615E-2,7.2818734E-2,-7.7459194E-2,2.6078103E-2,-7.6208725E-3,-4.501012E-2,1.6840208E-2,3.0073842E-2,5.9056837E-2,2.3661595E-2,7.358107E-2],"split_indices":[4,8,7,0,8,0,4,5,6,6,2,2,5,9,3,0,0,0,0,0,0,0,0,0,0,0,0,0,0,0,0],"split_type":[0,0,0,0,0,0,0,0,0,0,0,0,0,0,0,0,0,0,0,0,0,0,0,0,0,0,0,0,0,0,0],"sum_hessian":[4.1640184E4,2.6309623E4,1.533056E4,2.4321678E4,1.9879447E3,9.186722E3,6.1438384E3,1.6206276E4,8.1154023E3,1.5936187E3,3.9432596E2,7.8863496E3,1.3003716E3,4.842176E3,1.3016624E3,1.322783E4,2.9784468E3,7.3221416E3,7.9326044E2,6.524612E2,9.4115753E2,3.899789E2,4.3470325E0,6.315272E3,1.5710779E3,8.644226E2,4.3594894E2,3.1810403E3,1.6611356E3,4.091079E1,1.2607516E3],"tree_param":{"num_deleted":"0","num_feature":"10","num_nodes":"31","size_leaf_vector":"1"}},{"base_weights":[8.654086E-4,-7.373108E-2,4.9359465E-1,-3.606436E-1,4.7553927E-2,3.8849092E-1,6.483126E-1,-4.7792912E-1,-9.325378E-2,-3.9312866E-2,2.564392E-1,3.2165915E-1,5.5491525E-1,-1.7267078E-1,6.57221E-1,-9.290065E-3,-6.0835093E-2,-5.188143E-2,5.5742837E-3,6.0961037E-3,-2.3881925E-2,1.9182231E-2,5.676902E-2,3.4293108E-2,-7.305523E-2,2.241691E-2,6.1881047E-2,4.6680022E-2,-6.776468E-2,5.6453492E-2,7.4386954E-2],"categories":[],"categories_nodes":[],"categories_segments":[],"categories_sizes":[],"default_left":[0,0,0,0,0,0,0,0,0,0,0,0,0,0,0,0,0,0,0,0,0,0,0,0,0,0,0,0,0,0,0],"id":20,"left_children":[1,3,5,7,9,11,13,15,17,19,21,23,25,27,29,-1,-1,-1,-1,-1,-1,-1,-1,-1,-1,-1,-1,-1,-1,-1,-1],"loss_changes":[1.5139847E3,1.2448967E3,8.7820435E1,3.3330627E2,4.562851E2,3.572046E1,1.6126038E1,3.7095874E2,2.0560211E2,3.553275E2,1.4843533E2,5.1847427E1,1.9375336E1,8.161256E0,1.697644E1,0E0,0E0,0E0,0E0,0E0,0E0,0E0,0E0,0E0,0E0,0E0,0E0,0E0,0E0,0E0,0E0],"parents":[2147483647,0,0,1,1,2,2,3,3,4,4,5,5,6,6,7,7,8,8,9,9,10,10,11,11,12,12,13,13,14,14],"right_children":[2,4,6,8,10,12,14,16,18,20,22,24,26,28,30,-1,-1,-1,-1,-1,-1,-1,-1,-1,-1,-1,-1,-1,-1,-1,-1],"split_conditions":[1E0,-7.317136E-2,2E0,5E-1,1E0,1E0,-1.3181819E0,-4.852941E-1,-5.7998385E-2,4.5454547E-2,3E0,3.5005454E3,-3.0509025E-1,-5.344118E-1,3E0,-9.290065E-3,-6.0835093E-2,-5.188143E-2,5.5742837E-3,6.0961037E-3,-2.3881925E-2,1.9182231E-2,5.676902E-2,3.4293108E-2,-7.305523E-2,2.241691E-2,6.1881047E-2,4.6680022E-2,-6.776468E-2,5.6453492E-2,7.4386954E-2],"split_indices":[9,4,9,6,7,8,0,2,3,0,7,3,3,2,9,0,0,0,0,0,0,0,0,0,0,0,0,0,0,0,0],"split_type":[0,0,0,0,0,0,0,0,0,0,0,0,0,0,0,0,0,0,0,0,0,0,0,0,0,0,0,0,0,0,0],"sum_hessian":[4.1188293E4,3.577327E4,5.415025E3,1.0628486E4,2.5144781E4,3.2266162E3,2.188409E3,7.3873687E3,3.241118E3,1.7759957E4,7.384824E3,2.3042292E3,9.2238684E2,2.3293917E1,2.165115E3,1.8696224E3,5.517746E3,8.3985693E2,2.401261E3,1.1819868E4,5.94009E3,6.1166094E3,1.2682148E3,2.25923E3,4.4999374E1,1.5007094E2,7.7231586E2,1.0311569E1,1.29823475E1,1.0497423E3,1.1153727E3],"tree_param":{"num_deleted":"0","num_feature":"10","num_nodes":"31","size_leaf_vector":"1"}},{"base_weights":[7.9890084E-4,-6.707283E-2,4.6070993E-1,-3.3152997E-1,4.301294E-2,3.5898778E-1,6.140166E-1,1.6502701E-1,-3.8671625E-1,1.8102E-1,-7.002367E-2,2.9658502E-1,5.400741E-1,-1.5341255E-1,6.228579E-1,5.2672666E-2,-3.6246926E-3,-5.0847203E-2,-1.31991645E-2,6.8293945E-3,3.8008474E-2,-2.379786E-2,1.1869313E-2,2.6684606E-2,7.4827984E-2,5.7412256E-2,-5.3914834E-2,4.374826E-2,-5.8818933E-2,5.305333E-2,7.105156E-2],"categories":[],"categories_nodes":[],"categories_segments":[],"categories_sizes":[],"default_left":[0,0,0,0,0,0,0,0,0,0,0,0,0,0,0,0,0,0,0,0,0,0,0,0,0,0,0,0,0,0,0],"id":21,"left_children":[1,3,5,7,9,11,13,15,17,19,21,23,25,27,29,-1,-1,-1,-1,-1,-1,-1,-1,-1,-1,-1,-1,-1,-1,-1,-1],"loss_changes":[1.2705682E3,1.032634E3,8.140881E1,2.8574963E2,3.907127E2,3.542444E1,1.4252136E1,7.598346E1,2.9093384E2,2.530333E2,4.3644467E2,3.1289505E1,2.9920242E1,6.56843E0,1.6317627E1,0E0,0E0,0E0,0E0,0E0,0E0,0E0,0E0,0E0,0E0,0E0,0E0,0E0,0E0,0E0,0E0],"parents":[2147483647,0,0,1,1,2,2,3,3,4,4,5,5,6,6,7,7,8,8,9,9,10,10,11,11,12,12,13,13,14,14],"right_children":[2,4,6,8,10,12,14,16,18,20,22,24,26,28,30,-1,-1,-1,-1,-1,-1,-1,-1,-1,-1,-1,-1,-1,-1,-1,-1],"split_conditions":[1E0,-7.317136E-2,2E0,-7.7272725E-1,-1.08823525E-2,2E0,-1.3181819E0,-2.876167E-1,5E-1,1.6666667E-1,2.0303649E-1,2E0,3.5005454E3,-5.344118E-1,3E0,5.2672666E-2,-3.6246926E-3,-5.0847203E-2,-1.31991645E-2,6.8293945E-3,3.8008474E-2,-2.379786E-2,1.1869313E-2,2.6684606E-2,7.4827984E-2,5.7412256E-2,-5.3914834E-2,4.374826E-2,-5.8818933E-2,5.305333E-2,7.105156E-2],"split_indices":[9,4,9,0,2,7,0,4,6,5,3,8,3,2,9,0,0,0,0,0,0,0,0,0,0,0,0,0,0,0,0],"split_type":[0,0,0,0,0,0,0,0,0,0,0,0,0,0,0,0,0,0,0,0,0,0,0,0,0,0,0,0,0,0,0],"sum_hessian":[4.0701836E4,3.546841E4,5.233425E3,1.0424296E4,2.5044115E4,3.148002E3,2.0854229E3,1.0424563E3,9.381839E3,1.1276261E4,1.37678545E4,2.3431763E3,8.0482574E2,2.3565681E1,2.0618572E3,3.7212015E2,6.703362E2,6.347029E3,3.0348105E3,7.2002544E3,4.076006E3,7.284503E3,6.4833516E3,2.1999268E3,1.4324937E2,7.8066455E2,2.4161173E1,9.986727E0,1.3578956E1,1.00763116E3,1.054226E3],"tree_param":{"num_deleted":"0","num_feature":"10","num_nodes":"31","size_leaf_vector":"1"}},{"base_weights":[7.297026E-4,-6.0516853E-2,4.6803015E-1,3.518833E-2,-3.1272373E-1,3.9046735E-1,6.639372E-1,-6.64259E-2,2.3210143E-1,-3.9723545E-1,9.505455E-3,3.1372464E-1,5.300203E-1,-1.8929854E-1,6.785455E-1,-1.3740832E-2,2.4488786E-2,1.8164972E-2,5.4446574E-2,-5.9050974E-2,-1.9760981E-2,-1.1375391E-2,2.4884056E-2,4.4020843E-2,2.0115701E-2,4.2405464E-2,6.514848E-2,3.784802E-2,-5.1384356E-2,6.4208165E-2,8.740835E-2],"categories":[],"categories_nodes":[],"categories_segments":[],"categories_sizes":[],"default_left":[0,0,0,0,0,0,0,0,0,0,0,0,0,0,0,0,0,0,0,0,0,0,0,0,0,0,0,0,0,0,0],"id":22,"left_children":[1,3,5,7,9,11,13,15,17,19,21,23,25,27,29,-1,-1,-1,-1,-1,-1,-1,-1,-1,-1,-1,-1,-1,-1,-1,-1],"loss_changes":[1.15435E3,8.607367E2,7.075775E1,5.172696E2,2.6713495E2,3.5716766E1,1.6632874E1,3.76854E2,1.385747E2,2.997179E2,6.0183956E1,3.072519E1,1.5005981E1,4.4457417E0,8.722656E0,0E0,0E0,0E0,0E0,0E0,0E0,0E0,0E0,0E0,0E0,0E0,0E0,0E0,0E0,0E0,0E0],"parents":[2147483647,0,0,1,1,2,2,3,3,4,4,5,5,6,6,7,7,8,8,9,9,10,10,11,11,12,12,13,13,14,14],"right_children":[2,4,6,8,10,12,14,16,18,20,22,24,26,28,30,-1,-1,-1,-1,-1,-1,-1,-1,-1,-1,-1,-1,-1,-1,-1,-1],"split_conditions":[1E0,2.7272728E-1,2E0,1.173658E0,1E0,1.5232676E0,-1.3181819E0,1E0,1.6088289E0,1.6666667E-1,2E0,0E0,1.3238375E-1,-5.344118E-1,3E0,-1.3740832E-2,2.4488786E-2,1.8164972E-2,5.4446574E-2,-5.9050974E-2,-1.9760981E-2,-1.1375391E-2,2.4884056E-2,4.4020843E-2,2.0115701E-2,4.2405464E-2,6.514848E-2,3.784802E-2,-5.1384356E-2,6.4208165E-2,8.740835E-2],"split_indices":[8,0,8,4,7,4,0,5,4,5,7,5,3,2,1,0,0,0,0,0,0,0,0,0,0,0,0,0,0,0,0],"split_type":[0,0,0,0,0,0,0,0,0,0,0,0,0,0,0,0,0,0,0,0,0,0,0,0,0,0,0,0,0,0,0],"sum_hessian":[4.033093E4,3.5658266E4,4.6726665E3,2.5849855E4,9.808409E3,3.3495269E3,1.3231394E3,1.7051389E4,8.798466E3,7.770255E3,2.0381544E3,2.1631948E3,1.186332E3,2.2070864E1,1.3010686E3,1.3885846E4,3.165543E3,7.5763486E3,1.2221173E3,3.946937E3,3.8233179E3,1.3456561E3,6.924982E2,1.0172627E3,1.1459323E3,6.3598724E2,5.503447E2,7.966899E0,1.4103965E1,1.1001893E3,2.0087926E2],"tree_param":{"num_deleted":"0","num_feature":"10","num_nodes":"31","size_leaf_vector":"1"}},{"base_weights":[7.0677756E-4,-1.0130447E-1,2.4869108E-1,-3.4974277E-2,-4.3333536E-1,1.8338662E-1,5.342258E-1,1.2416068E-1,-1.5449725E-1,-5.3888047E-1,3.2616664E-2,1.03819445E-1,3.936769E-1,4.4450456E-1,6.6071796E-1,5.976201E-3,4.5611635E-2,-1.9896539E-2,5.3909507E-2,-5.8664978E-2,4.816511E-2,3.023589E-1,-1.4409042E-3,2.5033752E-2,-1.101666E-3,-6.874984E-2,4.1238245E-2,2.9840887E-2,5.8234897E-2,7.437629E-2,4.8207197E-2],"categories":[],"categories_nodes":[],"categories_segments":[],"categories_sizes":[],"default_left":[0,0,0,0,0,0,0,0,0,0,0,0,0,0,0,0,0,0,0,0,0,0,0,0,0,0,0,0,0,0,0],"id":23,"left_children":[1,3,5,7,9,11,13,15,17,19,21,23,25,27,29,-1,-1,-1,-1,-1,-1,-1,-1,-1,-1,-1,-1,-1,-1,-1,-1],"loss_changes":[1.0105803E3,6.2336084E2,2.1701501E2,4.4876346E2,2.317923E2,1.585426E2,2.429712E1,2.1631564E2,4.1567676E2,1.8760742E2,1.225979E2,1.15719154E2,5.2892517E1,2.5416046E1,1.2950287E1,0E0,0E0,0E0,0E0,0E0,0E0,0E0,0E0,0E0,0E0,0E0,0E0,0E0,0E0,0E0,0E0],"parents":[2147483647,0,0,1,1,2,2,3,3,4,4,5,5,6,6,7,7,8,8,9,9,10,10,11,11,12,12,13,13,14,14],"right_children":[2,4,6,8,10,12,14,16,18,20,22,24,26,28,30,-1,-1,-1,-1,-1,-1,-1,-1,-1,-1,-1,-1,-1,-1,-1,-1],"split_conditions":[1E0,5.4545456E-1,3E0,-2.9411765E-2,1E0,1.4910758E0,2.8339255E-1,6.666667E-1,1.5E0,1E0,-5.312581E-1,0E0,-5.278178E-1,4E0,3.4476597E1,5.976201E-3,4.5611635E-2,-1.9896539E-2,5.3909507E-2,-5.8664978E-2,4.816511E-2,3.023589E-1,-1.4409042E-3,2.5033752E-2,-1.101666E-3,-6.874984E-2,4.1238245E-2,2.9840887E-2,5.8234897E-2,7.437629E-2,4.8207197E-2],"split_indices":[7,0,7,2,5,4,3,5,6,8,3,2,3,7,3,0,0,0,0,0,0,0,0,0,0,0,0,0,0,0,0],"split_type":[0,0,0,0,0,0,0,0,0,0,0,0,0,0,0,0,0,0,0,0,0,0,0,0,0,0,0,0,0,0,0],"sum_hessian":[3.994633E4,2.8303814E4,1.1642515E4,2.3591934E4,4.7118823E3,9.476738E3,2.1657764E3,1.0119121E4,1.3472812E4,3.8415557E3,8.703266E2,6.8764146E3,2.6003235E3,1.2696932E3,8.96083E2,8.4759795E3,1.6431415E3,1.2661745E4,8.110666E2,3.6701858E3,1.7136974E2,1.2492161E1,8.578344E2,3.0209011E3,3.8555134E3,4.3615246E1,2.5567083E3,6.179343E2,6.51759E2,6.0956067E2,2.8652234E2],"tree_param":{"num_deleted":"0","num_feature":"10","num_nodes":"31","size_leaf_vector":"1"}},{"base_weights":[6.3724525E-4,-5.6562092E-2,4.0504217E-1,-2.8184432E-1,3.4539416E-2,3.1166965E-1,5.5205065E-1,-3.848801E-1,-5.9439976E-2,1.0796958E-2,5.755096E-1,1.7153664E-1,3.786821E-1,2.588472E-1,5.8030164E-1,-1.6192623E-4,-5.0118666E-2,-4.5249496E-2,7.284261E-3,1.3804915E-2,-9.964674E-3,1.4876892E-2,7.729804E-2,4.444068E-3,4.4913318E-2,4.0314548E-2,-2.3566404E-2,-2.0953229E-2,5.0563015E-2,8.567442E-2,5.500857E-2],"categories":[],"categories_nodes":[],"categories_segments":[],"categories_sizes":[],"default_left":[0,0,0,0,0,0,0,0,0,0,0,0,0,0,0,0,0,0,0,0,0,0,0,0,0,0,0,0,0,0,0],"id":24,"left_children":[1,3,5,7,9,11,13,15,17,19,21,23,25,27,29,-1,-1,-1,-1,-1,-1,-1,-1,-1,-1,-1,-1,-1,-1,-1,-1],"loss_changes":[9.1732324E2,7.130503E2,6.728046E1,2.2922705E2,3.1774643E2,2.8177734E1,1.5649963E1,3.0474457E2,1.6477823E2,3.3310315E2,8.753403E1,3.437155E1,3.0660217E1,1.9691664E1,1.4054871E1,0E0,0E0,0E0,0E0,0E0,0E0,0E0,0E0,0E0,0E0,0E0,0E0,0E0,0E0,0E0,0E0],"parents":[2147483647,0,0,1,1,2,2,3,3,4,4,5,5,6,6,7,7,8,8,9,9,10,10,11,11,12,12,13,13,14,14],"right_children":[2,4,6,8,10,12,14,16,18,20,22,24,26,28,30,-1,-1,-1,-1,-1,-1,-1,-1,-1,-1,-1,-1,-1,-1,-1,-1],"split_conditions":[1E0,-7.317136E-2,2E0,5E-1,1.5E0,-2.2896172E-1,-5.301767E-1,-5.588235E-1,-5.7998385E-2,-1.08823525E-2,3.4223863E-1,2E0,3.5005454E3,-1E0,-7.549097E-3,-1.6192623E-4,-5.0118666E-2,-4.5249496E-2,7.284261E-3,1.3804915E-2,-9.964674E-3,1.4876892E-2,7.729804E-2,4.444068E-3,4.4913318E-2,4.0314548E-2,-2.3566404E-2,-2.0953229E-2,5.0563015E-2,8.567442E-2,5.500857E-2],"split_indices":[9,4,9,6,6,3,3,2,3,2,3,1,3,0,4,0,0,0,0,0,0,0,0,0,0,0,0,0,0,0,0],"split_type":[0,0,0,0,0,0,0,0,0,0,0,0,0,0,0,0,0,0,0,0,0,0,0,0,0,0,0,0,0,0,0],"sum_hessian":[3.9654562E4,3.474155E4,4.913011E3,1.0003097E4,2.4738455E4,3.006531E3,1.90648E3,6.8355728E3,3.1675237E3,2.3699342E4,1.0391125E3,9.7377734E2,2.0327537E3,1.6844409E2,1.7380359E3,1.591657E3,5.2439155E3,7.969886E2,2.3705352E3,1.1011613E4,1.26877295E4,3.2928036E2,7.0983215E2,6.687528E2,3.0502454E2,1.9552395E3,7.7514084E1,5.817753E1,1.1026656E2,1.6855846E2,1.5694774E3],"tree_param":{"num_deleted":"0","num_feature":"10","num_nodes":"31","size_leaf_vector":"1"}},{"base_weights":[5.7681993E-4,-5.127999E-2,4.109429E-1,-2.9619914E-1,1.9384786E-2,3.3886993E-1,6.0088706E-1,-3.4553665E-1,1.4212857E-1,-1.8043306E-2,3.5090977E-1,3.0764198E-1,6.2275565E-1,-2.0893297E-1,6.1587316E-1,9.365391E-3,-3.997107E-2,-7.049125E-2,4.31927E-2,6.0987244E-3,-1.9026117E-2,5.3388145E-2,2.7387071E-2,3.8504716E-2,2.0797262E-2,2.7360568E-2,7.5079866E-2,3.285332E-2,-4.972395E-2,5.7840433E-2,8.199635E-2],"categories":[],"categories_nodes":[],"categories_segments":[],"categories_sizes":[],"default_left":[0,0,0,0,0,0,0,0,0,0,0,0,0,0,0,0,0,0,0,0,0,0,0,0,0,0,0,0,0,0,0],"id":25,"left_children":[1,3,5,7,9,11,13,15,17,19,21,23,25,27,29,-1,-1,-1,-1,-1,-1,-1,-1,-1,-1,-1,-1,-1,-1,-1,-1],"loss_changes":[8.3712036E2,6.044504E2,6.021399E1,1.6917047E2,3.3633795E2,2.8191498E1,1.4845795E1,1.6728564E2,1.9469133E2,3.315158E2,3.861371E1,2.2187714E1,1.3935493E1,3.6932511E0,8.632507E0,0E0,0E0,0E0,0E0,0E0,0E0,0E0,0E0,0E0,0E0,0E0,0E0,0E0,0E0,0E0,0E0],"parents":[2147483647,0,0,1,1,2,2,3,3,4,4,5,5,6,6,7,7,8,8,9,9,10,10,11,11,12,12,13,13,14,14],"right_children":[2,4,6,8,10,12,14,16,18,20,22,24,26,28,30,-1,-1,-1,-1,-1,-1,-1,-1,-1,-1,-1,-1,-1,-1,-1,-1],"split_conditions":[1E0,-1.638173E-1,2E0,1E0,2E0,1.6327994E0,-1.3181819E0,-7.7272725E-1,1.452986E-1,9.090909E-2,-5E-1,0E0,-5.588235E-1,-5.344118E-1,3E0,9.365391E-3,-3.997107E-2,-7.049125E-2,4.31927E-2,6.0987244E-3,-1.9026117E-2,5.3388145E-2,2.7387071E-2,3.8504716E-2,2.0797262E-2,2.7360568E-2,7.5079866E-2,3.285332E-2,-4.972395E-2,5.7840433E-2,8.199635E-2],"split_indices":[8,4,8,6,7,4,0,0,3,0,0,5,2,2,1,0,0,0,0,0,0,0,0,0,0,0,0,0,0,0,0],"split_type":[0,0,0,0,0,0,0,0,0,0,0,0,0,0,0,0,0,0,0,0,0,0,0,0,0,0,0,0,0,0,0],"sum_hessian":[3.9335863E4,3.4923547E4,4.4123154E3,7.8192803E3,2.7104268E4,3.200639E3,1.2116765E3,7.028387E3,7.908929E2,2.435555E4,2.7487168E3,2.8853308E3,3.153079E2,2.1780104E1,1.1898964E3,7.716741E2,6.2567134E3,2.01246E2,5.8964685E2,1.669492E4,7.660631E3,8.126654E2,1.9360515E3,1.6224453E3,1.2628856E3,8.5446815E1,2.2986108E2,7.5554934E0,1.422461E1,1.008568E3,1.813284E2],"tree_param":{"num_deleted":"0","num_feature":"10","num_nodes":"31","size_leaf_vector":"1"}},{"base_weights":[5.446748E-4,-4.928031E-2,3.6388996E-1,2.412424E-2,-2.4677318E-1,2.7686223E-1,5.0536484E-1,-7.269983E-2,1.7961745E-1,6.828155E-2,-3.3898732E-1,1.4843751E-1,3.394094E-1,2.136985E-1,5.339921E-1,1.9610418E-2,-1.53400665E-2,3.237212E-2,-1.7415306E-2,2.5245557E-2,-1.264597E-2,-4.4518832E-2,-2.197152E-3,3.247556E-3,4.0881876E-2,3.6309462E-2,-2.3454187E-2,-2.1072445E-2,4.5292523E-2,4.421866E-2,6.3354544E-2],"categories":[],"categories_nodes":[],"categories_segments":[],"categories_sizes":[],"default_left":[0,0,0,0,0,0,0,0,0,0,0,0,0,0,0,0,0,0,0,0,0,0,0,0,0,0,0,0,0,0,0],"id":26,"left_children":[1,3,5,7,9,11,13,15,17,19,21,23,25,27,29,-1,-1,-1,-1,-1,-1,-1,-1,-1,-1,-1,-1,-1,-1,-1,-1],"loss_changes":[7.0623987E2,4.9734268E2,5.7781677E1,3.765723E2,2.7009668E2,2.3363739E1,1.48359375E1,3.344074E2,4.893672E2,7.555381E1,2.4210583E2,2.8866428E1,2.6721863E1,1.6513355E1,1.461557E1,0E0,0E0,0E0,0E0,0E0,0E0,0E0,0E0,0E0,0E0,0E0,0E0,0E0,0E0,0E0,0E0],"parents":[2147483647,0,0,1,1,2,2,3,3,4,4,5,5,6,6,7,7,8,8,9,9,10,10,11,11,12,12,13,13,14,14],"right_children":[2,4,6,8,10,12,14,16,18,20,22,24,26,28,30,-1,-1,-1,-1,-1,-1,-1,-1,-1,-1,-1,-1,-1,-1,-1,-1],"split_conditions":[1E0,2.7272728E-1,2E0,2.3573153E-1,-4.852941E-1,-2.2896172E-1,-5.301767E-1,-6.0794115E-1,8.0033777E2,6.818182E-1,1E0,2E0,3.5005454E3,-1E0,3E0,1.9610418E-2,-1.53400665E-2,3.237212E-2,-1.7415306E-2,2.5245557E-2,-1.264597E-2,-4.4518832E-2,-2.197152E-3,3.247556E-3,4.0881876E-2,3.6309462E-2,-2.3454187E-2,-2.1072445E-2,4.5292523E-2,4.421866E-2,6.3354544E-2],"split_indices":[9,0,9,3,2,3,3,2,3,0,5,1,3,0,9,0,0,0,0,0,0,0,0,0,0,0,0,0,0,0,0],"split_type":[0,0,0,0,0,0,0,0,0,0,0,0,0,0,0,0,0,0,0,0,0,0,0,0,0,0,0,0,0,0,0],"sum_hessian":[3.9008875E4,3.430548E4,4.703394E3,2.5010432E4,9.29505E3,2.9138855E3,1.7895084E3,1.5413272E4,9.597158E3,2.1046514E3,7.1903984E3,9.554616E2,1.9584238E3,1.6069975E2,1.6288087E3,3.5586018E3,1.185467E4,6.819436E3,2.7777224E3,1.0815208E3,1.0231306E3,5.3857544E3,1.8046439E3,6.618351E2,2.9362653E2,1.8811615E3,7.726232E1,5.797061E1,1.0272913E2,8.502091E2,7.7859955E2],"tree_param":{"num_deleted":"0","num_feature":"10","num_nodes":"31","size_leaf_vector":"1"}},{"base_weights":[5.161294E-4,-4.5265738E-2,3.7224615E-1,-1.13866046E-1,1.5831625E-1,3.0478448E-1,5.556846E-1,-2.2651367E-1,3.2018926E-2,7.489271E-2,3.1668246E-1,2.7590826E-1,5.785133E-1,-1.6403374E-1,5.702004E-1,2.1685138E-2,-2.9412946E-2,4.3693867E-2,-6.050938E-3,1.1410831E-3,2.799545E-2,5.0536092E-2,2.5280455E-2,2.9652063E-2,-6.840646E-3,2.250441E-2,7.116692E-2,3.2055277E-2,-4.1320775E-2,5.3271383E-2,7.781878E-2],"categories":[],"categories_nodes":[],"categories_segments":[],"categories_sizes":[],"default_left":[0,0,0,0,0,0,0,0,0,0,0,0,0,0,0,0,0,0,0,0,0,0,0,0,0,0,0,0,0,0,0],"id":27,"left_children":[1,3,5,7,9,11,13,15,17,19,21,23,25,27,29,-1,-1,-1,-1,-1,-1,-1,-1,-1,-1,-1,-1,-1,-1,-1,-1],"loss_changes":[6.5973346E2,4.820454E2,5.2434753E1,4.242634E2,1.14909225E2,2.4423218E1,1.2021576E1,4.367848E2,4.21509E2,7.418797E1,3.604425E1,2.0000183E1,1.3765343E1,2.9517202E0,8.312988E0,0E0,0E0,0E0,0E0,0E0,0E0,0E0,0E0,0E0,0E0,0E0,0E0,0E0,0E0,0E0,0E0],"parents":[2147483647,0,0,1,1,2,2,3,3,4,4,5,5,6,6,7,7,8,8,9,9,10,10,11,11,12,12,13,13,14,14],"right_children":[2,4,6,8,10,12,14,16,18,20,22,24,26,28,30,-1,-1,-1,-1,-1,-1,-1,-1,-1,-1,-1,-1,-1,-1,-1,-1],"split_conditions":[1E0,1E0,2E0,1.6666667E-1,2E0,1.6327994E0,-1.3181819E0,-1E0,-5.4545456E-1,1.4910758E0,-5.4545456E-1,1.6714706E0,-5.588235E-1,-5.344118E-1,3E0,2.1685138E-2,-2.9412946E-2,4.3693867E-2,-6.050938E-3,1.1410831E-3,2.799545E-2,5.0536092E-2,2.5280455E-2,2.9652063E-2,-6.840646E-3,2.250441E-2,7.116692E-2,3.2055277E-2,-4.1320775E-2,5.3271383E-2,7.781878E-2],"split_indices":[8,7,8,5,7,4,0,5,0,4,0,2,2,2,1,0,0,0,0,0,0,0,0,0,0,0,0,0,0,0,0],"split_type":[0,0,0,0,0,0,0,0,0,0,0,0,0,0,0,0,0,0,0,0,0,0,0,0,0,0,0,0,0,0,0],"sum_hessian":[3.8763688E4,3.4513875E4,4.2498135E3,2.5815393E4,8.698481E3,3.1090757E3,1.1407377E3,1.4566818E4,1.1248574E4,5.698251E3,3.0002302E3,2.814207E3,2.948686E2,2.2348656E1,1.118389E3,1.9272694E3,1.2639549E4,2.0916096E3,9.156965E3,4.35203E3,1.3462213E3,7.5708636E2,2.2431438E3,2.6553818E3,1.5882521E2,8.1421364E1,2.1344722E2,7.4919887E0,1.48566675E1,9.5061633E2,1.677727E2],"tree_param":{"num_deleted":"0","num_feature":"10","num_nodes":"31","size_leaf_vector":"1"}},{"base_weights":[5.242215E-4,-8.3880015E-2,1.7744794E-1,-1.23590596E-1,2.4169335E-1,1.2440702E-1,4.8218718E-1,1.2354122E-2,-2.2527727E-1,-6.568319E-2,5.048766E-1,1.5719044E-1,-2.5988138E-1,4.954511E-1,-1.0284142E0,6.759714E-3,-2.4801584E-2,-2.8112803E-2,6.081819E-3,1.0993902E-1,-1.2509683E-2,6.898581E-2,2.906539E-3,1.2713495E-2,4.8554733E-2,-4.3070488E-2,2.9748369E-2,4.3514784E-2,6.6262655E-2,-2.4346903E-1,4.3905165E-2],"categories":[],"categories_nodes":[],"categories_segments":[],"categories_sizes":[],"default_left":[0,0,0,0,0,0,0,0,0,0,0,0,0,0,0,0,0,0,0,0,0,0,0,0,0,0,0,0,0,0,0],"id":28,"left_children":[1,3,5,7,9,11,13,15,17,19,21,23,25,27,29,-1,-1,-1,-1,-1,-1,-1,-1,-1,-1,-1,-1,-1,-1,-1,-1],"loss_changes":[5.747624E2,3.369239E2,2.0087509E2,3.2106952E2,2.2922266E2,1.33453E2,3.742859E1,1.4298474E2,2.1232642E2,9.0659966E1,1.3432797E2,9.62386E1,7.941681E1,1.8132385E1,3.4837234E1,0E0,0E0,0E0,0E0,0E0,0E0,0E0,0E0,0E0,0E0,0E0,0E0,0E0,0E0,0E0,0E0],"parents":[2147483647,0,0,1,1,2,2,3,3,4,4,5,5,6,6,7,7,8,8,9,9,10,10,11,11,12,12,13,13,14,14],"right_children":[2,4,6,8,10,12,14,16,18,20,22,24,26,28,30,-1,-1,-1,-1,-1,-1,-1,-1,-1,-1,-1,-1,-1,-1,-1,-1],"split_conditions":[1.173658E0,1E0,1.6088289E0,-1.08823525E-2,4.1155744E-1,5.4545456E-1,3.4117646E0,5.4545456E-1,1.1666666E0,-7.7272725E-1,6.7597175E0,1E0,5E-1,1.6666667E-1,2E0,6.759714E-3,-2.4801584E-2,-2.8112803E-2,6.081819E-3,1.0993902E-1,-1.2509683E-2,6.898581E-2,2.906539E-3,1.2713495E-2,4.8554733E-2,-4.3070488E-2,2.9748369E-2,4.3514784E-2,6.6262655E-2,-2.4346903E-1,4.3905165E-2],"split_indices":[4,6,4,2,3,0,2,0,5,0,3,5,5,5,7,0,0,0,0,0,0,0,0,0,0,0,0,0,0,0,0],"split_type":[0,0,0,0,0,0,0,0,0,0,0,0,0,0,0,0,0,0,0,0,0,0,0,0,0,0,0,0,0,0,0],"sum_hessian":[3.8487125E4,2.605683E4,1.2430294E4,2.3224705E4,2.8321252E3,1.0588701E4,1.8415922E3,9.938638E3,1.3286067E4,1.3067263E3,1.525399E3,9.756934E3,8.3176764E2,1.8262289E3,1.5363278E1,8.199648E3,1.738989E3,1.1116042E4,2.1700254E3,6.255467E1,1.2441716E3,1.0980568E3,4.2734225E2,8.940015E3,8.169194E2,6.3681976E2,1.9494786E2,1.3447544E3,4.814745E2,7.5086293E0,7.8546486E0],"tree_param":{"num_deleted":"0","num_feature":"10","num_nodes":"31","size_leaf_vector":"1"}},{"base_weights":[4.858956E-4,-4.04022E-2,3.3936608E-1,-2.4645491E-1,1.661294E-2,2.7616793E-1,5.158554E-1,-1.0003529E-2,-3.279921E-1,-2.0556781E-2,2.451654E-1,-5.370817E-1,2.8458118E-1,2.6713818E-1,5.587883E-1,5.4507177E-2,-1.1292841E-2,-6.871284E-2,-2.240955E-2,-8.364189E-3,1.5157299E-2,4.6058256E-2,1.281572E-2,-9.758891E-3,-2.1114643E-1,2.2386042E-2,4.196393E-2,3.2738012E-3,5.398487E-2,7.128002E-2,5.0300904E-2],"categories":[],"categories_nodes":[],"categories_segments":[],"categories_sizes":[],"default_left":[0,0,0,0,0,0,0,0,0,0,0,0,0,0,0,0,0,0,0,0,0,0,0,0,0,0,0,0,0,0,0],"id":29,"left_children":[1,3,5,7,9,11,13,15,17,19,21,23,25,27,29,-1,-1,-1,-1,-1,-1,-1,-1,-1,-1,-1,-1,-1,-1,-1,-1],"loss_changes":[5.30407E2,4.0129773E2,4.582669E1,1.4272751E2,2.2730257E2,2.0931244E1,1.14422E1,1.0857222E2,2.0524976E2,2.4991937E2,9.4278946E1,2.1549347E1,2.4561234E1,1.031961E1,7.586273E0,0E0,0E0,0E0,0E0,0E0,0E0,0E0,0E0,0E0,0E0,0E0,0E0,0E0,0E0,0E0,0E0],"parents":[2147483647,0,0,1,1,2,2,3,3,4,4,5,5,6,6,7,7,8,8,9,9,10,10,11,11,12,12,13,13,14,14],"right_children":[2,4,6,8,10,12,14,16,18,20,22,24,26,28,30,-1,-1,-1,-1,-1,-1,-1,-1,-1,-1,-1,-1,-1,-1,-1,-1],"split_conditions":[1E0,-1.6670045E-1,2E0,-2.8835154E-1,1.1666666E0,-1.2941177E0,-4.4613498E-1,-8.636364E-1,-3.3333334E-1,1E0,-1.3636364E-1,1.595903E0,3.966816E-1,-5E-1,-5E-1,5.4507177E-2,-1.1292841E-2,-6.871284E-2,-2.240955E-2,-8.364189E-3,1.5157299E-2,4.6058256E-2,1.281572E-2,-9.758891E-3,-2.1114643E-1,2.2386042E-2,4.196393E-2,3.2738012E-3,5.398487E-2,7.128002E-2,5.0300904E-2],"split_indices":[8,4,8,4,5,2,3,0,5,7,0,4,3,0,5,0,0,0,0,0,0,0,0,0,0,0,0,0,0,0,0],"split_type":[0,0,0,0,0,0,0,0,0,0,0,0,0,0,0,0,0,0,0,0,0,0,0,0,0,0,0,0,0,0,0],"sum_hessian":[3.82775E4,3.41571E4,4.1203955E3,7.402207E3,2.6754896E4,3.035864E3,1.0845319E3,1.8983287E3,5.503878E3,2.3013154E4,3.7417427E3,3.0441633E1,3.0054224E3,1.6071364E2,9.238182E2,2.9626605E2,1.6020627E3,1.2337162E3,4.2701616E3,1.6841355E4,6.1717983E3,1.3159977E3,2.425745E3,2.462851E1,5.813124E0,2.0751248E3,9.302974E2,8.7029816E1,7.368383E1,2.4249292E2,6.8132526E2],"tree_param":{"num_deleted":"0","num_feature":"10","num_nodes":"31","size_leaf_vector":"1"}},{"base_weights":[4.3187567E-4,-4.0527966E-2,3.106433E-1,-2.2791526E-1,1.2297653E-2,2.615032E-1,5.255566E-1,-2.5836834E-1,3.6495245E-1,-6.99865E-3,4.4807774E-1,-3.49278E-1,2.714006E-1,2.6140183E-1,6.26697E-1,-3.0582083E-2,1.363664E-2,4.900716E-2,-9.7833745E-2,5.235683E-3,-1.7241973E-2,1.1281569E-2,6.074927E-2,-6.0855713E-2,6.450891E-2,1.995204E-2,3.5845097E-2,3.0031508E-2,-7.7396534E-2,6.402589E-2,1.1335987E-2],"categories":[],"categories_nodes":[],"categories_segments":[],"categories_sizes":[],"default_left":[0,0,0,0,0,0,0,0,0,0,0,0,0,0,0,0,0,0,0,0,0,0,0,0,0,0,0,0,0,0,0],"id":30,"left_children":[1,3,5,7,9,11,13,15,17,19,21,23,25,27,29,-1,-1,-1,-1,-1,-1,-1,-1,-1,-1,-1,-1,-1,-1,-1,-1],"loss_changes":[4.8327573E2,3.3258777E2,4.671344E1,1.3349512E2,2.2040683E2,2.1933945E1,2.1866638E1,1.3169019E2,6.1220325E1,2.4645926E2,5.933145E1,1.5357749E1,2.2176758E1,9.499982E0,4.073654E0,0E0,0E0,0E0,0E0,0E0,0E0,0E0,0E0,0E0,0E0,0E0,0E0,0E0,0E0,0E0,0E0],"parents":[2147483647,0,0,1,1,2,2,3,3,4,4,5,5,6,6,7,7,8,8,9,9,10,10,11,11,12,12,13,13,14,14],"right_children":[2,4,6,8,10,12,14,16,18,20,22,24,26,28,30,-1,-1,-1,-1,-1,-1,-1,-1,-1,-1,-1,-1,-1,-1,-1,-1],"split_conditions":[1E0,-1.638173E-1,3E0,2E0,1.5E0,-1.2941177E0,-3.781472E-1,1E0,1.3597059E0,3.8235295E-1,3.300908E-1,1.6802186E0,4.636668E-2,-3.3333334E-1,1.3333334E0,-3.0582083E-2,1.363664E-2,4.900716E-2,-9.7833745E-2,5.235683E-3,-1.7241973E-2,1.1281569E-2,6.074927E-2,-6.0855713E-2,6.450891E-2,1.995204E-2,3.5845097E-2,3.0031508E-2,-7.7396534E-2,6.402589E-2,1.1335987E-2],"split_indices":[9,4,9,7,6,2,3,6,2,2,3,4,3,5,5,0,0,0,0,0,0,0,0,0,0,0,0,0,0,0,0],"split_type":[0,0,0,0,0,0,0,0,0,0,0,0,0,0,0,0,0,0,0,0,0,0,0,0,0,0,0,0,0,0,0],"sum_hessian":[3.803262E4,3.3597348E4,4.435273E3,7.387719E3,2.6209627E4,3.6116775E3,8.235955E2,7.0273193E3,3.6039948E2,2.509922E4,1.1104072E3,5.704537E1,3.554632E3,2.2902376E2,5.945718E2,6.2733975E3,7.539223E2,3.3027188E2,3.0127607E1,1.8471912E4,6.627307E3,3.5839087E2,7.5201636E2,4.5554996E1,1.1490374E1,1.9487671E3,1.6058651E3,2.2141214E2,7.6116166E0,5.790272E2,1.5544557E1],"tree_param":{"num_deleted":"0","num_feature":"10","num_nodes":"31","size_leaf_vector":"1"}},{"base_weights":[4.0665624E-4,-3.5429407E-2,3.0411583E-1,3.9135642E-2,-1.6924009E-1,2.4557069E-1,4.724569E-1,-3.86963E-2,1.6548616E-1,-1.12968825E-1,-5.344174E-1,3.126736E-1,1.563099E-1,2.2882316E-1,5.152937E-1,1.7762411E-2,-1.1362702E-2,2.6377771E-2,-9.857287E-3,-2.6355514E-2,1.549253E-3,-6.509599E-2,-1.4696796E-2,-2.602619E-2,3.282984E-2,9.003431E-3,5.0002497E-2,5.538741E-4,4.9829956E-2,6.706976E-2,4.5993697E-2],"categories":[],"categories_nodes":[],"categories_segments":[],"categories_sizes":[],"default_left":[0,0,0,0,0,0,0,0,0,0,0,0,0,0,0,0,0,0,0,0,0,0,0,0,0,0,0,0,0,0,0],"id":31,"left_children":[1,3,5,7,9,11,13,15,17,19,21,23,25,27,29,-1,-1,-1,-1,-1,-1,-1,-1,-1,-1,-1,-1,-1,-1,-1,-1],"loss_changes":[4.1142307E2,3.373692E2,3.920404E1,2.135397E2,2.4857114E2,1.7693924E1,1.0614899E1,2.1782773E2,2.1485716E2,2.028356E2,7.2839294E1,1.5214371E1,2.895917E1,9.358319E0,7.2086487E0,0E0,0E0,0E0,0E0,0E0,0E0,0E0,0E0,0E0,0E0,0E0,0E0,0E0,0E0,0E0,0E0],"parents":[2147483647,0,0,1,1,2,2,3,3,4,4,5,5,6,6,7,7,8,8,9,9,10,10,11,11,12,12,13,13,14,14],"right_children":[2,4,6,8,10,12,14,16,18,20,22,24,26,28,30,-1,-1,-1,-1,-1,-1,-1,-1,-1,-1,-1,-1,-1,-1,-1,-1],"split_conditions":[1E0,9.090909E-2,2E0,2.18281E-1,1.0176964E3,0E0,-4.4613498E-1,-6.0794115E-1,8.0033777E2,1.6666667E-1,1E0,-1.2329412E0,1.5232676E0,-5E-1,-5E-1,1.7762411E-2,-1.1362702E-2,2.6377771E-2,-9.857287E-3,-2.6355514E-2,1.549253E-3,-6.509599E-2,-1.4696796E-2,-2.602619E-2,3.282984E-2,9.003431E-3,5.0002497E-2,5.538741E-4,4.9829956E-2,6.706976E-2,4.5993697E-2],"split_indices":[8,0,8,3,3,5,3,2,3,5,7,2,4,0,5,0,0,0,0,0,0,0,0,0,0,0,0,0,0,0,0],"split_type":[0,0,0,0,0,0,0,0,0,0,0,0,0,0,0,0,0,0,0,0,0,0,0,0,0,0,0,0,0,0,0],"sum_hessian":[3.7799633E4,3.3811E4,3.9886338E3,2.1712545E4,1.2098454E4,2.961241E3,1.0273928E3,1.3436408E4,8.276137E3,1.0484219E4,1.6142352E3,1.6890065E3,1.2722346E3,1.5457748E2,8.7281537E2,3.4564573E3,9.979951E3,6.031145E3,2.2449917E3,4.825992E3,5.6582266E3,1.2404384E3,3.737968E2,4.4423187E1,1.6445833E3,1.0676339E3,2.0460066E2,8.509199E1,6.94855E1,2.2632727E2,6.464881E2],"tree_param":{"num_deleted":"0","num_feature":"10","num_nodes":"31","size_leaf_vector":"1"}},{"base_weights":[3.7543394E-4,-3.5653E-2,2.7953628E-1,2.2696715E-3,-2.5099757E-1,2.0514722E-1,4.0825117E-1,-5.0099704E-2,1.5569013E-1,-3.3750483E-1,5.4784615E-2,2.1918899E-1,-2.9529077E-1,7.4787736E-1,3.7085003E-1,-7.544824E-3,4.0547267E-2,9.8473355E-3,3.7272096E-2,-4.1550625E-2,1.152824E-3,2.5509974E-1,2.020036E-3,1.4166266E-2,3.2243803E-2,-1.2135054E-2,-1.9338708E-1,-8.0710605E-2,7.791119E-2,1.9375209E-2,4.2819E-2],"categories":[],"categories_nodes":[],"categories_segments":[],"categories_sizes":[],"default_left":[0,0,0,0,0,0,0,0,0,0,0,0,0,0,0,0,0,0,0,0,0,0,0,0,0,0,0,0,0,0,0],"id":32,"left_children":[1,3,5,7,9,11,13,15,17,19,21,23,25,27,29,-1,-1,-1,-1,-1,-1,-1,-1,-1,-1,-1,-1,-1,-1,-1,-1],"loss_changes":[3.78422E2,2.7214066E2,4.1096405E1,2.2766977E2,1.3200974E2,1.9231674E1,1.9718903E1,2.4398851E2,8.950856E1,1.0589859E2,9.5014595E1,2.1196152E1,2.1104635E1,8.165695E0,1.4337158E1,0E0,0E0,0E0,0E0,0E0,0E0,0E0,0E0,0E0,0E0,0E0,0E0,0E0,0E0,0E0,0E0],"parents":[2147483647,0,0,1,1,2,2,3,3,4,4,5,5,6,6,7,7,8,8,9,9,10,10,11,11,12,12,13,13,14,14],"right_children":[2,4,6,8,10,12,14,16,18,20,22,24,26,28,30,-1,-1,-1,-1,-1,-1,-1,-1,-1,-1,-1,-1,-1,-1,-1,-1],"split_conditions":[1E0,5.4545456E-1,2E0,1.3435719E0,1E0,3.5005454E3,-7.549097E-3,1.5E0,3.3333334E-1,1E0,-5.312581E-1,5.7149462E-2,1.3333334E0,-5.322536E-1,-3.835313E-1,-7.544824E-3,4.0547267E-2,9.8473355E-3,3.7272096E-2,-4.1550625E-2,1.152824E-3,2.5509974E-1,2.020036E-3,1.4166266E-2,3.2243803E-2,-1.2135054E-2,-1.9338708E-1,-8.0710605E-2,7.791119E-2,1.9375209E-2,4.2819E-2],"split_indices":[9,0,9,4,5,3,4,6,5,7,3,3,5,3,3,0,0,0,0,0,0,0,0,0,0,0,0,0,0,0,0],"split_type":[0,0,0,0,0,0,0,0,0,0,0,0,0,0,0,0,0,0,0,0,0,0,0,0,0,0,0,0,0,0,0],"sum_hessian":[3.7623008E4,3.3323195E4,4.299811E3,2.8334428E4,4.988768E3,2.7266016E3,1.5732096E3,2.1124389E4,7.2100396E3,3.8885688E3,1.100199E3,2.6527307E3,7.387084E1,1.5417819E2,1.4190314E3,2.0011748E4,1.1126407E3,5.7069463E3,1.5030936E3,3.1781338E3,7.104351E2,1.4040298E1,1.0861587E3,1.5164502E3,1.1362805E3,6.775274E1,6.1181E0,2.546818E0,1.5163138E2,3.4814468E2,1.0708867E3],"tree_param":{"num_deleted":"0","num_feature":"10","num_nodes":"31","size_leaf_vector":"1"}},{"base_weights":[3.526002E-4,-3.3250097E-2,2.723314E-1,5.516939E-2,-1.1727599E-1,1.8219715E-1,3.8330734E-1,-6.1057387E-3,2.2307119E-1,1.0489953E-1,-1.7740862E-1,3.8229868E-1,1.1552754E-1,4.2180538E-1,1.4049104E-1,-3.0816332E-3,4.2168807E-2,4.298812E-2,-1.4270422E-3,-3.5659373E-3,2.5353814E-2,-2.4735745E-2,3.950426E-3,7.5375065E-2,2.1896731E-2,-1.8507443E-1,1.2267717E-2,2.5146762E-2,4.841732E-2,2.285146E-2,-1.3147919E-1],"categories":[],"categories_nodes":[],"categories_segments":[],"categories_sizes":[],"default_left":[0,0,0,0,0,0,0,0,0,0,0,0,0,0,0,0,0,0,0,0,0,0,0,0,0,0,0,0,0,0,0],"id":33,"left_children":[1,3,5,7,9,11,13,15,17,19,21,23,25,27,29,-1,-1,-1,-1,-1,-1,-1,-1,-1,-1,-1,-1,-1,-1,-1,-1],"loss_changes":[3.4175555E2,2.4727885E2,4.106143E1,1.6685431E2,2.2801372E2,3.025225E1,1.7159912E1,1.25625244E2,2.1284738E2,7.59666E1,2.0379352E2,3.4241646E1,2.4194227E1,1.6763824E1,3.278405E1,0E0,0E0,0E0,0E0,0E0,0E0,0E0,0E0,0E0,0E0,0E0,0E0,0E0,0E0,0E0,0E0],"parents":[2147483647,0,0,1,1,2,2,3,3,4,4,5,5,6,6,7,7,8,8,9,9,10,10,11,11,12,12,13,13,14,14],"right_children":[2,4,6,8,10,12,14,16,18,20,22,24,26,28,30,-1,-1,-1,-1,-1,-1,-1,-1,-1,-1,-1,-1,-1,-1,-1,-1],"split_conditions":[2E0,-1.8181819E-1,3E0,4.9517974E-1,-4.852941E-1,-5.9090906E-1,4.090909E-1,1.6088289E0,1.6430829E2,0E0,1E0,4.417943E-1,-1.2941177E0,-1.3211995E-1,1.5979412E0,-3.0816332E-3,4.2168807E-2,4.298812E-2,-1.4270422E-3,-3.5659373E-3,2.5353814E-2,-2.4735745E-2,3.950426E-3,7.5375065E-2,2.1896731E-2,-1.8507443E-1,1.2267717E-2,2.5146762E-2,4.841732E-2,2.285146E-2,-1.3147919E-1],"split_indices":[7,0,7,3,2,0,0,4,3,5,5,4,2,3,2,0,0,0,0,0,0,0,0,0,0,0,0,0,0,0,0],"split_type":[0,0,0,0,0,0,0,0,0,0,0,0,0,0,0,0,0,0,0,0,0,0,0,0,0,0,0,0,0,0,0],"sum_hessian":[3.739239E4,3.328139E4,4.1110034E3,1.6216888E4,1.7064502E4,2.2699783E3,1.8410253E3,1.1881678E4,4.3352095E3,3.6346409E3,1.3429861E4,5.661142E2,1.7038641E3,1.5884436E3,2.5258165E2,1.1233714E4,6.4796344E2,2.3161753E3,2.0190342E3,1.8684839E3,1.7661569E3,1.0154996E4,3.2748647E3,1.7179628E2,3.943179E2,5.238823E0,1.6986252E3,4.2706998E2,1.1613737E3,2.3897038E2,1.3611273E1],"tree_param":{"num_deleted":"0","num_feature":"10","num_nodes":"31","size_leaf_vector":"1"}},{"base_weights":[3.4285407E-4,-3.0280877E-2,2.664521E-1,-7.938071E-2,1.1576127E-1,2.1439873E-1,4.2132747E-1,-1.7319247E-1,3.9761342E-2,7.945414E-2,3.5891983E-1,2.789548E-1,1.2924781E-1,3.7885267E-1,6.7003804E-1,-4.2967284E-3,-3.353169E-2,3.75097E-2,-3.8350464E-3,2.0797443E-2,-2.541345E-5,-4.007848E-2,3.8133524E-2,7.260212E-3,3.2207992E-2,7.2708772E-3,4.4087525E-2,-2.458527E-2,3.956101E-2,8.071016E-2,2.3321578E-2],"categories":[],"categories_nodes":[],"categories_segments":[],"categories_sizes":[],"default_left":[0,0,0,0,0,0,0,0,0,0,0,0,0,0,0,0,0,0,0,0,0,0,0,0,0,0,0,0,0,0,0],"id":34,"left_children":[1,3,5,7,9,11,13,15,17,19,21,23,25,27,29,-1,-1,-1,-1,-1,-1,-1,-1,-1,-1,-1,-1,-1,-1,-1,-1],"loss_changes":[3.035901E2,2.3957346E2,3.0904755E1,2.7946967E2,7.418716E1,1.5793076E1,9.952026E0,2.953311E2,2.8855164E2,7.494226E1,1.8746109E1,1.4544243E1,2.1878878E1,8.75972E0,8.171349E0,0E0,0E0,0E0,0E0,0E0,0E0,0E0,0E0,0E0,0E0,0E0,0E0,0E0,0E0,0E0,0E0],"parents":[2147483647,0,0,1,1,2,2,3,3,4,4,5,5,6,6,7,7,8,8,9,9,10,10,11,11,12,12,13,13,14,14],"right_children":[2,4,6,8,10,12,14,16,18,20,22,24,26,28,30,-1,-1,-1,-1,-1,-1,-1,-1,-1,-1,-1,-1,-1,-1,-1,-1],"split_conditions":[1E0,1E0,2E0,1.6666667E-1,3E0,0E0,3E0,0E0,-5.4545456E-1,0E0,-6.666667E-1,-8.3617646E-1,1.5232676E0,-1.3181819E0,2.6764706E-1,-4.2967284E-3,-3.353169E-2,3.75097E-2,-3.8350464E-3,2.0797443E-2,-2.541345E-5,-4.007848E-2,3.8133524E-2,7.260212E-3,3.2207992E-2,7.2708772E-3,4.4087525E-2,-2.458527E-2,3.956101E-2,8.071016E-2,2.3321578E-2],"split_indices":[8,7,8,5,7,5,1,6,0,6,5,2,4,0,2,0,0,0,0,0,0,0,0,0,0,0,0,0,0,0,0],"split_type":[0,0,0,0,0,0,0,0,0,0,0,0,0,0,0,0,0,0,0,0,0,0,0,0,0,0,0,0,0,0,0],"sum_hessian":[3.725172E4,3.3408023E4,3.843694E3,2.5002547E4,8.4054795E3,2.878589E3,9.651051E2,1.3988013E4,1.1014533E4,7.3146255E3,1.0908541E3,1.6360002E3,1.2425887E3,8.264818E2,1.3862332E2,7.7578467E3,6.2301665E3,2.0802356E3,8.934297E3,2.7993657E3,4.51526E3,3.077991E1,1.0600742E3,2.8326532E2,1.352735E3,1.0528093E3,1.8977946E2,2.1233683E1,8.052481E2,1.0487012E2,3.3753204E1],"tree_param":{"num_deleted":"0","num_feature":"10","num_nodes":"31","size_leaf_vector":"1"}},{"base_weights":[3.3392667E-4,-3.0526968E-2,2.4499606E-1,-1.8391562E-1,1.1537315E-2,2.0192339E-1,4.4479343E-1,4.8681673E-2,-2.5510356E-1,-2.5516722E-2,1.7859893E-1,-3.9259475E-1,2.1185786E-1,1.8788983E-1,5.4876184E-1,5.6910854E-2,-6.5143094E-3,-6.1533194E-2,-1.5856719E-2,9.161274E-3,-1.1685257E-2,1.1728852E-3,2.943706E-2,-1.567518E-2,-1.5912889E-1,2.1634705E-2,-8.7873384E-2,-1.4201065E-2,3.091673E-2,5.6382596E-2,-3.7618403E-4],"categories":[],"categories_nodes":[],"categories_segments":[],"categories_sizes":[],"default_left":[0,0,0,0,0,0,0,0,0,0,0,0,0,0,0,0,0,0,0,0,0,0,0,0,0,0,0,0,0,0,0],"id":35,"left_children":[1,3,5,7,9,11,13,15,17,19,21,23,25,27,29,-1,-1,-1,-1,-1,-1,-1,-1,-1,-1,-1,-1,-1,-1,-1,-1],"loss_changes":[2.7992618E2,2.1241649E2,3.5646545E1,1.1733006E2,1.5994426E2,2.0270401E1,1.9545303E1,9.844002E1,1.8855899E2,2.2625089E2,9.0610596E1,1.5730752E1,1.6652222E1,8.584187E0,4.356613E0,0E0,0E0,0E0,0E0,0E0,0E0,0E0,0E0,0E0,0E0,0E0,0E0,0E0,0E0,0E0,0E0],"parents":[2147483647,0,0,1,1,2,2,3,3,4,4,5,5,6,6,7,7,8,8,9,9,10,10,11,11,12,12,13,13,14,14],"right_children":[2,4,6,8,10,12,14,16,18,20,22,24,26,28,30,-1,-1,-1,-1,-1,-1,-1,-1,-1,-1,-1,-1,-1,-1,-1,-1],"split_conditions":[1E0,-1.638173E-1,3E0,-2.896234E-1,1E0,-1.2941177E0,-3.781472E-1,-8.636364E-1,-3.3333334E-1,0E0,2.0303649E-1,-1.3382353E0,2.6666667E0,-1.0454545E0,1.3333334E0,5.6910854E-2,-6.5143094E-3,-6.1533194E-2,-1.5856719E-2,9.161274E-3,-1.1685257E-2,1.1728852E-3,2.943706E-2,-1.567518E-2,-1.5912889E-1,2.1634705E-2,-8.7873384E-2,-1.4201065E-2,3.091673E-2,5.6382596E-2,-3.7618403E-4],"split_indices":[9,4,9,4,5,2,3,0,5,6,3,2,5,0,5,0,0,0,0,0,0,0,0,0,0,0,0,0,0,0,0],"split_type":[0,0,0,0,0,0,0,0,0,0,0,0,0,0,0,0,0,0,0,0,0,0,0,0,0,0,0,0,0,0,0],"sum_hessian":[3.7071906E4,3.2920316E4,4.151588E3,7.0842007E3,2.5836117E4,3.4169636E3,7.3462427E2,1.6601606E3,5.42404E3,2.1146664E4,4.6894536E3,5.5526318E1,3.3614373E3,2.1245636E2,5.221679E2,2.9721976E2,1.3629409E3,1.1452251E3,4.278815E3,9.265082E3,1.1881582E4,1.9212781E3,2.7681758E3,4.7342464E1,8.183856E0,3.3484558E3,1.2981628E1,5.7062717E1,1.5539365E2,5.082893E2,1.3878582E1],"tree_param":{"num_deleted":"0","num_feature":"10","num_nodes":"31","size_leaf_vector":"1"}},{"base_weights":[2.8345213E-4,-1.746857E-2,3.7781367E-1,-4.1867163E-2,2.1636873E-1,3.910101E-1,-1.0612379E0,-8.131279E-3,-2.3492278E-1,1.7090385E-1,3.658629E-1,4.007192E-1,-6.650489E-1,-2.1685885E-1,3.2144758E-1,7.7883746E-3,-7.458479E-3,-4.035143E-2,-8.218992E-3,4.3567028E-2,1.494833E-2,-2.3904978E-1,3.746611E-2,3.846995E-2,1.11946486E-1,-1.3526522E-1,5.7755183E-2,-3.884582E-2,5.9005182E-2],"categories":[],"categories_nodes":[],"categories_segments":[],"categories_sizes":[],"default_left":[0,0,0,0,0,0,0,0,0,0,0,0,0,0,0,0,0,0,0,0,0,0,0,0,0,0,0,0,0],"id":36,"left_children":[1,3,5,7,9,11,13,15,17,19,21,23,25,-1,27,-1,-1,-1,-1,-1,-1,-1,-1,-1,-1,-1,-1,-1,-1],"loss_changes":[2.4730264E2,2.0108144E2,3.1885498E1,2.078514E2,2.2570526E1,1.7111267E1,2.4165915E1,1.5529701E2,1.22206635E2,1.4427155E1,1.9706757E1,1.832016E1,1.3889925E1,0E0,1.6950762E0,0E0,0E0,0E0,0E0,0E0,0E0,0E0,0E0,0E0,0E0,0E0,0E0,0E0,0E0],"parents":[2147483647,0,0,1,1,2,2,3,3,4,4,5,5,6,6,7,7,8,8,9,9,10,10,11,11,12,12,14,14],"right_children":[2,4,6,8,10,12,14,16,18,20,22,24,26,-1,28,-1,-1,-1,-1,-1,-1,-1,-1,-1,-1,-1,-1,-1,-1],"split_conditions":[1.6088289E0,1E0,3.4117646E0,5.4545456E-1,2E0,1E0,2E0,-1.08823525E-2,1.6666667E-1,-4.846192E-1,-1.4411764E0,8.181818E-1,1E0,-2.1685885E-1,-1.6666667E-1,7.7883746E-3,-7.458479E-3,-4.035143E-2,-8.218992E-3,4.3567028E-2,1.494833E-2,-2.3904978E-1,3.746611E-2,3.846995E-2,1.11946486E-1,-1.3526522E-1,5.7755183E-2,-3.884582E-2,5.9005182E-2],"split_indices":[4,8,2,0,8,0,7,2,5,3,2,0,9,0,5,0,0,0,0,0,0,0,0,0,0,0,0,0,0],"split_type":[0,0,0,0,0,0,0,0,0,0,0,0,0,0,0,0,0,0,0,0,0,0,0,0,0,0,0,0,0],"sum_hessian":[3.689826E4,3.524208E4,1.6561804E3,3.1913088E4,3.3289917E3,1.6418524E3,1.4327907E1,2.7166812E4,4.746276E3,2.554307E3,7.746848E2,1.6275101E3,1.4342285E1,7.6404862E0,6.68742E0,1.1840598E4,1.5326214E4,2.2552336E3,2.491042E3,1.8973752E2,2.3645693E3,1.6035702E0,7.7308124E2,1.5935282E3,3.3982025E1,9.176067E0,5.166218E0,1.7132328E0,4.9741874E0],"tree_param":{"num_deleted":"0","num_feature":"10","num_nodes":"29","size_leaf_vector":"1"}},{"base_weights":[2.6062847E-4,-4.7283713E-2,1.2524804E-1,-7.8178816E-2,2.0404114E-1,8.27713E-2,3.4837586E-1,-1.0166701E-1,2.2154021E-1,-7.931461E-2,4.059056E-1,5.023775E-2,4.14427E-1,3.6068657E-1,-9.768458E-1,-6.055112E-4,-1.7466716E-2,2.483802E-2,-3.440373E-2,5.3929634E-2,-2.212597E-2,5.2265197E-2,6.728206E-3,3.448717E-2,9.850091E-4,-3.116908E-1,4.412965E-2,4.568949E-2,2.6295602E-2,-1.9698577E-1,3.0002156E-2],"categories":[],"categories_nodes":[],"categories_segments":[],"categories_sizes":[],"default_left":[0,0,0,0,0,0,0,0,0,0,0,0,0,0,0,0,0,0,0,0,0,0,0,0,0,0,0,0,0,0,0],"id":37,"left_children":[1,3,5,7,9,11,13,15,17,19,21,23,25,27,29,-1,-1,-1,-1,-1,-1,-1,-1,-1,-1,-1,-1,-1,-1,-1,-1],"loss_changes":[2.1839964E2,2.0674864E2,9.5960175E1,1.6694278E2,1.6676428E2,9.179564E1,2.6771545E1,1.534704E2,2.6247223E1,1.06677246E2,6.726599E1,9.222344E1,7.349045E1,1.4972809E1,1.9831423E1,0E0,0E0,0E0,0E0,0E0,0E0,0E0,0E0,0E0,0E0,0E0,0E0,0E0,0E0,0E0,0E0],"parents":[2147483647,0,0,1,1,2,2,3,3,4,4,5,5,6,6,7,7,8,8,9,9,10,10,11,11,12,12,13,13,14,14],"right_children":[2,4,6,8,10,12,14,16,18,20,22,24,26,28,30,-1,-1,-1,-1,-1,-1,-1,-1,-1,-1,-1,-1,-1,-1,-1,-1],"split_conditions":[1.3238044E0,1E0,1.6088289E0,1E0,3.4223863E-1,8.333333E-1,3.4117646E0,-1.08823525E-2,2.6646626E3,-4.5454547E-1,6.7597175E0,-1.1666666E0,-2.9213977E-1,-2.514706E-1,2E0,-6.055112E-4,-1.7466716E-2,2.483802E-2,-3.440373E-2,5.3929634E-2,-2.212597E-2,5.2265197E-2,6.728206E-3,3.448717E-2,9.850091E-4,-3.116908E-1,4.412965E-2,4.568949E-2,2.6295602E-2,-1.9698577E-1,3.0002156E-2],"split_indices":[4,6,4,9,3,5,2,2,3,0,3,5,3,2,7,0,0,0,0,0,0,0,0,0,0,0,0,0,0,0,0],"split_type":[0,0,0,0,0,0,0,0,0,0,0,0,0,0,0,0,0,0,0,0,0,0,0,0,0,0,0,0,0,0,0],"sum_hessian":[3.6750496E4,2.6623662E4,1.0126834E4,2.3709736E4,2.913924E3,8.508454E3,1.6183796E3,2.198731E4,1.7224274E3,1.2125222E3,1.7014019E3,7.7494307E3,7.5902374E2,1.6042052E3,1.4174501E1,9.519817E3,1.2467492E4,1.6449268E3,7.750059E1,2.2577458E2,9.867476E2,1.2647975E3,4.3660446E2,9.3330365E2,6.816127E3,4.8632774E0,7.5416046E2,8.0654626E2,7.9765894E2,7.668236E0,6.5062656E0],"tree_param":{"num_deleted":"0","num_feature":"10","num_nodes":"31","size_leaf_vector":"1"}},{"base_weights":[2.5459885E-4,-2.5483564E-2,2.1514323E-1,-2.5554886E-3,-2.4895392E-1,1.3220222E-1,3.1061277E-1,-5.8441155E-2,1.8696688E-1,-3.8104004E-1,1.5039195E-2,6.74852E-2,3.7013805E-1,-8.880857E-1,3.2872373E-1,3.6202862E-3,-1.3593338E-2,7.4969087E-4,4.7404487E-2,-6.075388E-2,-1.5528964E-2,2.1148864E-2,-3.620241E-2,2.2375815E-2,-9.894429E-3,-1.406648E-2,4.390639E-2,-2.1830192E-1,1.8124873E-3,6.2160846E-2,2.7445767E-2],"categories":[],"categories_nodes":[],"categories_segments":[],"categories_sizes":[],"default_left":[0,0,0,0,0,0,0,0,0,0,0,0,0,0,0,0,0,0,0,0,0,0,0,0,0,0,0,0,0,0,0],"id":38,"left_children":[1,3,5,7,9,11,13,15,17,19,21,23,25,27,29,-1,-1,-1,-1,-1,-1,-1,-1,-1,-1,-1,-1,-1,-1,-1,-1],"loss_changes":[2.0236702E2,1.674188E2,3.0948563E1,3.1389987E2,1.060278E2,3.224999E1,3.9774536E1,1.6786697E2,3.4771973E2,1.0352945E2,7.525589E1,4.291044E1,1.5833538E1,3.212166E1,2.8316193E1,0E0,0E0,0E0,0E0,0E0,0E0,0E0,0E0,0E0,0E0,0E0,0E0,0E0,0E0,0E0,0E0],"parents":[2147483647,0,0,1,1,2,2,3,3,4,4,5,5,6,6,7,7,8,8,9,9,10,10,11,11,12,12,13,13,14,14],"right_children":[2,4,6,8,10,12,14,16,18,20,22,24,26,28,30,-1,-1,-1,-1,-1,-1,-1,-1,-1,-1,-1,-1,-1,-1,-1,-1],"split_conditions":[2E0,1.6041272E3,1.7182615E-1,4.576276E-1,8.927071E-1,4E0,-1.2588235E0,0E0,5E-1,5E-1,9.090909E-2,0E0,-1.0454545E0,1.1947484E0,-6.363636E-1,3.6202862E-3,-1.3593338E-2,7.4969087E-4,4.7404487E-2,-6.075388E-2,-1.5528964E-2,2.1148864E-2,-3.620241E-2,2.2375815E-2,-9.894429E-3,-1.406648E-2,4.390639E-2,-2.1830192E-1,1.8124873E-3,6.2160846E-2,2.7445767E-2],"split_indices":[7,3,3,3,4,7,2,6,6,6,0,6,0,4,0,0,0,0,0,0,0,0,0,0,0,0,0,0,0,0,0],"split_type":[0,0,0,0,0,0,0,0,0,0,0,0,0,0,0,0,0,0,0,0,0,0,0,0,0,0,0,0,0,0,0],"sum_hessian":[3.658686E4,3.2674205E4,3.9126526E3,2.9634695E4,3.0395105E3,2.0949814E3,1.8176713E3,2.2886652E4,6.7480415E3,2.0255865E3,1.0139239E3,1.6480154E3,4.46966E2,2.633922E1,1.791332E3,1.0303345E4,1.2583309E4,4.1528604E3,2.5951807E3,1.0102733E3,1.0153132E3,6.6690594E2,3.4701794E2,8.497643E2,7.9825104E2,5.301752E1,3.939485E2,1.0263785E1,1.6075434E1,2.783839E2,1.5129481E3],"tree_param":{"num_deleted":"0","num_feature":"10","num_nodes":"31","size_leaf_vector":"1"}},{"base_weights":[2.2904045E-4,-4.4046123E-2,1.1283668E-1,-1.1711541E-1,5.073933E-2,7.857282E-2,2.8771824E-1,2.01104E-1,-1.6871415E-1,3.2484984E-1,-1.3023499E-2,1.3788149E-1,-2.0559318E-2,-6.505137E-2,3.1367844E-1,-3.539183E-2,2.9160608E-2,-2.0273957E-2,2.0257464E-2,-1.8291615E-3,4.327591E-2,4.197948E-3,-4.0223084E-2,-5.6725528E-2,1.5071391E-2,-4.4572428E-2,4.0792968E-4,-1.8090245E-1,1.2949494E-2,3.5535123E-2,6.5278444E-3],"categories":[],"categories_nodes":[],"categories_segments":[],"categories_sizes":[],"default_left":[0,0,0,0,0,0,0,0,0,0,0,0,0,0,0,0,0,0,0,0,0,0,0,0,0,0,0,0,0,0,0],"id":39,"left_children":[1,3,5,7,9,11,13,15,17,19,21,23,25,27,29,-1,-1,-1,-1,-1,-1,-1,-1,-1,-1,-1,-1,-1,-1,-1,-1],"loss_changes":[1.817999E2,1.812796E2,6.164125E1,2.4271779E2,1.9915376E2,5.0602543E1,1.54566345E1,1.0371065E2,1.607157E2,7.963107E1,1.9792801E2,4.8810875E1,3.3758335E1,3.971502E1,1.6230606E1,0E0,0E0,0E0,0E0,0E0,0E0,0E0,0E0,0E0,0E0,0E0,0E0,0E0,0E0,0E0,0E0],"parents":[2147483647,0,0,1,1,2,2,3,3,4,4,5,5,6,6,7,7,8,8,9,9,10,10,11,11,12,12,13,13,14,14],"right_children":[2,4,6,8,10,12,14,16,18,20,22,24,26,28,30,-1,-1,-1,-1,-1,-1,-1,-1,-1,-1,-1,-1,-1,-1,-1,-1],"split_conditions":[1E0,1.6666667E-1,3E0,-1E0,-5.4545456E-1,4.705882E-3,-4.7186542E-1,-1.1818181E0,1E0,-9.4931E-2,8.0033777E2,-1.2941177E0,-2.7061087E-1,4E0,4.090909E-1,-3.539183E-2,2.9160608E-2,-2.0273957E-2,2.0257464E-2,-1.8291615E-3,4.327591E-2,4.197948E-3,-4.0223084E-2,-5.6725528E-2,1.5071391E-2,-4.4572428E-2,4.0792968E-4,-1.8090245E-1,1.2949494E-2,3.5535123E-2,6.5278444E-3],"split_indices":[7,5,7,5,0,2,3,0,9,3,3,2,4,7,0,0,0,0,0,0,0,0,0,0,0,0,0,0,0,0,0],"split_type":[0,0,0,0,0,0,0,0,0,0,0,0,0,0,0,0,0,0,0,0,0,0,0,0,0,0,0,0,0,0,0],"sum_hessian":[3.646211E4,2.6172281E4,1.0289829E4,1.4779024E4,1.1393257E4,8.605279E3,1.6845499E3,2.0616335E3,1.2717391E4,2.1493416E3,9.243916E3,5.3838467E3,3.221433E3,1.153651E2,1.5691848E3,2.8863153E2,1.7730021E3,1.1650204E4,1.0671868E3,5.1440656E2,1.634935E3,8.1000977E3,1.1438179E3,9.545447E1,5.288392E3,1.7552232E2,3.045911E3,1.0744991E1,1.046201E2,1.3433821E3,2.258028E2],"tree_param":{"num_deleted":"0","num_feature":"10","num_nodes":"31","size_leaf_vector":"1"}},{"base_weights":[2.0360405E-4,-2.2193087E-2,2.0247954E-1,6.684802E-3,-1.9335961E-1,1.2681161E-1,2.8071052E-1,-4.374644E-2,9.672305E-2,-3.3333492E-1,-6.6907845E-2,3.4488687E-1,6.936444E-2,2.014403E-1,3.859285E-1,5.918932E-3,-1.3586506E-2,1.9448942E-2,-1.9035814E-2,-3.7959352E-2,4.2402424E-2,3.301424E-2,-1.6184947E-2,2.1569846E-2,7.980039E-2,1.5877936E-2,-1.6599547E-2,2.0996088E-2,-2.4879053E-1,-5.9477836E-2,4.161847E-2],"categories":[],"categories_nodes":[],"categories_segments":[],"categories_sizes":[],"default_left":[0,0,0,0,0,0,0,0,0,0,0,0,0,0,0,0,0,0,0,0,0,0,0,0,0,0,0,0,0,0,0],"id":40,"left_children":[1,3,5,7,9,11,13,15,17,19,21,23,25,27,29,-1,-1,-1,-1,-1,-1,-1,-1,-1,-1,-1,-1,-1,-1,-1,-1],"loss_changes":[1.6447343E2,1.6156589E2,2.1387985E1,1.2700198E2,8.349573E1,2.3046204E1,1.4756897E1,1.7000641E2,2.818719E2,7.861159E1,9.355057E1,2.2289207E1,3.0726452E1,2.3814411E1,2.2891388E1,0E0,0E0,0E0,0E0,0E0,0E0,0E0,0E0,0E0,0E0,0E0,0E0,0E0,0E0,0E0,0E0],"parents":[2147483647,0,0,1,1,2,2,3,3,4,4,5,5,6,6,7,7,8,8,9,9,10,10,11,11,12,12,13,13,14,14],"right_children":[2,4,6,8,10,12,14,16,18,20,22,24,26,28,30,-1,-1,-1,-1,-1,-1,-1,-1,-1,-1,-1,-1,-1,-1,-1,-1],"split_conditions":[1E0,5.4545456E-1,5.7149462E-2,2.8339255E-1,1.6666667E-1,-1.0653512E-3,1.3652958E0,0E0,1.6041272E3,2E0,-5.588235E-1,-8.736862E-2,0E0,5E0,-1.2329412E0,5.918932E-3,-1.3586506E-2,1.9448942E-2,-1.9035814E-2,-3.7959352E-2,4.2402424E-2,3.301424E-2,-1.6184947E-2,2.1569846E-2,7.980039E-2,1.5877936E-2,-1.6599547E-2,2.0996088E-2,-2.4879053E-1,-5.9477836E-2,4.161847E-2],"split_indices":[8,0,3,3,5,4,4,6,3,7,2,4,6,1,2,0,0,0,0,0,0,0,0,0,0,0,0,0,0,0,0],"split_type":[0,0,0,0,0,0,0,0,0,0,0,0,0,0,0,0,0,0,0,0,0,0,0,0,0,0,0,0,0,0,0],"sum_hessian":[3.6303117E4,3.2685008E4,3.6181067E3,2.7967508E4,4.7175E3,1.8405138E3,1.777593E3,1.7926965E4,1.0040543E4,2.238246E3,2.4792542E3,3.827088E2,1.457805E3,1.01546545E3,7.621275E2,8.466563E3,9.460402E3,7.490092E3,2.550451E3,2.109876E3,1.2837E2,4.7795346E2,2.0013007E3,2.989508E2,8.375799E1,1.0566873E3,4.011177E2,1.01317737E3,2.2880883E0,2.2250608E1,7.398769E2],"tree_param":{"num_deleted":"0","num_feature":"10","num_nodes":"31","size_leaf_vector":"1"}},{"base_weights":[1.7544297E-4,-1.347996E-2,3.0454916E-1,-4.289995E-2,1.2569962E-1,3.3291063E-1,-2.2656056E-1,-1.5051801E-2,-2.2474545E-1,3.3759645E-1,7.470243E-2,3.431659E-1,-9.076859E-1,-9.387934E-1,3.0281273E-1,-3.8991E-3,1.6679222E-2,-2.6412074E-2,3.800444E-2,2.181475E-2,5.6127883E-2,5.753808E-3,9.039083E-2,9.501543E-2,3.249994E-2,-1.7908044E-1,5.1090784E-2,-1.5527748E-1,1.2640248E-1,4.7056835E-2,-7.9367466E-2],"categories":[],"categories_nodes":[],"categories_segments":[],"categories_sizes":[],"default_left":[0,0,0,0,0,0,0,0,0,0,0,0,0,0,0,0,0,0,0,0,0,0,0,0,0,0,0,0,0,0,0],"id":41,"left_children":[1,3,5,7,9,11,13,15,17,19,21,23,25,27,29,-1,-1,-1,-1,-1,-1,-1,-1,-1,-1,-1,-1,-1,-1,-1,-1],"loss_changes":[1.5033774E2,1.4175272E2,2.3469543E1,1.4471579E2,6.525354E1,1.907431E1,3.0193077E1,1.0789418E2,9.047739E1,3.1179794E1,6.926645E1,1.5827805E1,1.640606E1,4.8035835E1,8.882719E0,0E0,0E0,0E0,0E0,0E0,0E0,0E0,0E0,0E0,0E0,0E0,0E0,0E0,0E0,0E0,0E0],"parents":[2147483647,0,0,1,1,2,2,3,3,4,4,5,5,6,6,7,7,8,8,9,9,10,10,11,11,12,12,13,13,14,14],"right_children":[2,4,6,8,10,12,14,16,18,20,22,24,26,28,30,-1,-1,-1,-1,-1,-1,-1,-1,-1,-1,-1,-1,-1,-1,-1,-1],"split_conditions":[1.6088289E0,1E0,1.4117647E0,5.4545456E-1,-3.6363637E-1,1E0,1E0,1E0,1E0,5.144947E-1,1.3636364E0,-5.2369684E-1,1E0,2.1666667E0,3.181818E-1,-3.8991E-3,1.6679222E-2,-2.6412074E-2,3.800444E-2,2.181475E-2,5.6127883E-2,5.753808E-3,9.039083E-2,9.501543E-2,3.249994E-2,-1.7908044E-1,5.1090784E-2,-1.5527748E-1,1.2640248E-1,4.7056835E-2,-7.9367466E-2],"split_indices":[4,5,2,0,0,0,7,9,6,3,0,3,9,5,0,0,0,0,0,0,0,0,0,0,0,0,0,0,0,0,0],"split_type":[0,0,0,0,0,0,0,0,0,0,0,0,0,0,0,0,0,0,0,0,0,0,0,0,0,0,0,0,0,0,0],"sum_hessian":[3.6168664E4,3.4616582E4,1.5520804E3,2.8576691E4,6.0398926E3,1.4737546E3,7.832589E1,2.4782531E4,3.7941592E3,1.1705516E3,4.869341E3,1.4623893E3,1.13653345E1,3.3065407E1,4.5260483E1,2.190022E4,2.8823103E3,3.562766E3,2.3139308E2,7.6435345E2,4.061982E2,4.7716387E3,9.770228E1,4.1005085E1,1.4213842E3,6.8429847E0,4.52235E0,2.6088873E1,6.9765344E0,3.9749847E1,5.5106344E0],"tree_param":{"num_deleted":"0","num_feature":"10","num_nodes":"31","size_leaf_vector":"1"}},{"base_weights":[1.713937E-4,-3.756149E-2,9.648568E-2,-6.306054E-2,1.8228444E-1,-1.1356671E0,1.0033895E-1,-8.346164E-2,2.3787554E-1,2.4012718E-1,-2.4904843E-1,-1.4356158E0,5.760602E-1,7.036754E-2,2.564887E-1,3.3162724E-2,-9.754846E-3,4.3971352E-2,1.8036908E-2,1.205321E-2,5.636852E-2,-4.8576888E-2,5.5149525E-2,-1.7986728E-1,2.3138756E-4,7.8857854E-2,1.628124E-2,6.7778155E-3,1.946827E-1,1.805766E-2,3.728491E-2],"categories":[],"categories_nodes":[],"categories_segments":[],"categories_sizes":[],"default_left":[0,0,0,0,0,0,0,0,0,0,0,0,0,0,0,0,0,0,0,0,0,0,0,0,0,0,0,0,0,0,0],"id":42,"left_children":[1,3,5,7,9,11,13,15,17,19,21,23,25,27,29,-1,-1,-1,-1,-1,-1,-1,-1,-1,-1,-1,-1,-1,-1,-1,-1],"loss_changes":[1.3105922E2,1.4526694E2,4.8310143E1,1.4257178E2,6.725521E1,1.7117016E1,4.7346245E1,1.27185455E2,1.7034004E1,9.1846664E1,6.071173E1,1.4247494E1,3.4974992E-1,4.1130436E1,1.4324951E1,0E0,0E0,0E0,0E0,0E0,0E0,0E0,0E0,0E0,0E0,0E0,0E0,0E0,0E0,0E0,0E0],"parents":[2147483647,0,0,1,1,2,2,3,3,4,4,5,5,6,6,7,7,8,8,9,9,10,10,11,11,12,12,13,13,14,14],"right_children":[2,4,6,8,10,12,14,16,18,20,22,24,26,28,30,-1,-1,-1,-1,-1,-1,-1,-1,-1,-1,-1,-1,-1,-1,-1,-1],"split_conditions":[1E0,1.3333334E0,-1.4411764E0,1E0,3.4476597E1,1.7788111E0,3E0,-1.1666666E0,-3.781472E-1,5.144947E-1,9.485919E-1,1E0,-7.7272725E-1,1.9545455E0,2.8339255E-1,3.3162724E-2,-9.754846E-3,4.3971352E-2,1.8036908E-2,1.205321E-2,5.636852E-2,-4.8576888E-2,5.5149525E-2,-1.7986728E-1,2.3138756E-4,7.8857854E-2,1.628124E-2,6.7778155E-3,1.946827E-1,1.805766E-2,3.728491E-2],"split_indices":[7,5,2,8,3,4,7,5,3,3,4,5,0,0,3,0,0,0,0,0,0,0,0,0,0,0,0,0,0,0,0],"split_type":[0,0,0,0,0,0,0,0,0,0,0,0,0,0,0,0,0,0,0,0,0,0,0,0,0,0,0,0,0,0,0],"sum_hessian":[3.606059E4,2.5910346E4,1.0150242E4,2.3218086E4,2.6922598E3,3.0727814E1,1.0119514E4,2.174469E4,1.4733969E3,2.3743035E3,3.179563E2,2.6283434E1,4.444381E0,8.491168E3,1.6283456E3,7.12985E2,2.1031705E4,3.2523407E2,1.1481627E3,1.734545E3,6.397584E2,2.4569699E2,7.22593E1,2.078471E1,5.4987235E0,2.3352175E0,2.1091638E0,8.480502E3,1.06663885E1,9.869944E2,6.413512E2],"tree_param":{"num_deleted":"0","num_feature":"10","num_nodes":"31","size_leaf_vector":"1"}},{"base_weights":[1.7852771E-4,-1.2023653E-2,2.7746627E-1,3.0193532E-2,-8.967288E-2,2.8849196E-1,-9.0573204E-1,-4.5138445E-2,1.1233486E-1,8.3288744E-2,-1.6100173E-1,8.5395247E-1,2.7239633E-1,-1.7475115E-1,2.2681151E-1,1.2907696E-2,-1.05924485E-2,-5.5423316E-2,1.2959063E-2,-8.465345E-3,2.2377327E-2,-2.2009876E-2,-8.4042375E-4,9.795752E-2,-1.3214967E-1,-2.9443225E-1,2.7850589E-2,-2.3256527E-2,7.683866E-2],"categories":[],"categories_nodes":[],"categories_segments":[],"categories_sizes":[],"default_left":[0,0,0,0,0,0,0,0,0,0,0,0,0,0,0,0,0,0,0,0,0,0,0,0,0,0,0,0,0],"id":43,"left_children":[1,3,5,7,9,11,13,15,17,19,21,23,25,-1,27,-1,-1,-1,-1,-1,-1,-1,-1,-1,-1,-1,-1,-1,-1],"loss_changes":[1.2160082E2,1.1285027E2,2.0023537E1,1.3799934E2,1.4959619E2,1.343441E1,1.3960218E1,1.23208305E2,1.2278262E2,8.355894E1,7.74158E1,1.2524384E1,2.9543198E1,0E0,1.9080755E0,0E0,0E0,0E0,0E0,0E0,0E0,0E0,0E0,0E0,0E0,0E0,0E0,0E0,0E0],"parents":[2147483647,0,0,1,1,2,2,3,3,4,4,5,5,6,6,7,7,8,8,9,9,10,10,11,11,12,12,14,14],"right_children":[2,4,6,8,10,12,14,16,18,20,22,24,26,-1,28,-1,-1,-1,-1,-1,-1,-1,-1,-1,-1,-1,-1,-1,-1],"split_conditions":[1.6088289E0,9.090909E-2,3.4117646E0,7.323992E-2,-3.0882353E-1,-5.2369684E-1,2E0,-6.3441175E-1,-1.2941177E0,0E0,1E0,3.181818E-1,-5.2203256E-1,-1.7475115E-1,2E0,1.2907696E-2,-1.05924485E-2,-5.5423316E-2,1.2959063E-2,-8.465345E-3,2.2377327E-2,-2.2009876E-2,-8.4042375E-4,9.795752E-2,-1.3214967E-1,-2.9443225E-1,2.7850589E-2,-2.3256527E-2,7.683866E-2],"split_indices":[4,0,2,3,2,3,7,2,2,5,5,0,3,0,1,0,0,0,0,0,0,0,0,0,0,0,0,0,0],"split_type":[0,0,0,0,0,0,0,0,0,0,0,0,0,0,0,0,0,0,0,0,0,0,0,0,0,0,0,0,0],"sum_hessian":[3.5937215E4,3.4423355E4,1.5138596E3,2.2299777E4,1.2123577E4,1.5006321E3,1.3227552E1,1.163226E4,1.0667518E4,3.5398386E3,8.583738E3,4.0092045E1,1.46054E3,7.2763233E0,5.9512296E0,3.0085376E3,8.623722E3,2.6840134E2,1.0399116E4,1.6125334E3,1.9273052E3,6.187168E3,2.3965703E3,3.8422997E1,1.6690485E0,1.857071E0,1.458683E3,3.5286884E0,2.4225411E0],"tree_param":{"num_deleted":"0","num_feature":"10","num_nodes":"29","size_leaf_vector":"1"}},{"base_weights":[1.4734274E-4,-1.8930817E-2,1.5969229E-1,-7.83953E-2,4.6617664E-2,1.2184492E-1,3.4589952E-1,1.6425194E-2,-1.914193E-1,2.4397026E-1,-4.408541E-3,3.1612062E-1,8.898871E-2,7.033732E-2,4.605045E-1,-6.703759E-3,1.7338116E-2,-2.551873E-2,1.1773863E-3,-3.1737974E-4,3.24073E-2,-1.0290648E-2,9.299613E-3,3.3219483E-2,-2.0926058E-1,1.0185069E-2,-6.003333E-2,1.1419776E-2,-9.742918E-2,4.7759566E-2,-1.5039905E-2],"categories":[],"categories_nodes":[],"categories_segments":[],"categories_sizes":[],"default_left":[0,0,0,0,0,0,0,0,0,0,0,0,0,0,0,0,0,0,0,0,0,0,0,0,0,0,0,0,0,0,0],"id":44,"left_children":[1,3,5,7,9,11,13,15,17,19,21,23,25,27,29,-1,-1,-1,-1,-1,-1,-1,-1,-1,-1,-1,-1,-1,-1,-1,-1],"loss_changes":[1.09152245E2,1.2485089E2,2.6950417E1,1.7999329E2,1.5343282E2,2.0300175E1,2.038272E1,1.19664314E2,9.928171E1,6.1967636E1,1.1616767E2,1.8516945E1,2.4224527E1,8.865282E0,4.8369064E0,0E0,0E0,0E0,0E0,0E0,0E0,0E0,0E0,0E0,0E0,0E0,0E0,0E0,0E0,0E0,0E0],"parents":[2147483647,0,0,1,1,2,2,3,3,4,4,5,5,6,6,7,7,8,8,9,9,10,10,11,11,12,12,13,13,14,14],"right_children":[2,4,6,8,10,12,14,16,18,20,22,24,26,28,30,-1,-1,-1,-1,-1,-1,-1,-1,-1,-1,-1,-1,-1,-1,-1,-1],"split_conditions":[1E0,1.6666667E-1,3E0,0E0,-5E-1,-1.2755051E-1,-3.781472E-1,1E0,1E0,-8.255691E-2,2.0303649E-1,2.5E0,3.8535708E3,-3.3333334E-1,1.3333334E0,-6.703759E-3,1.7338116E-2,-2.551873E-2,1.1773863E-3,-3.1737974E-4,3.24073E-2,-1.0290648E-2,9.299613E-3,3.3219483E-2,-2.0926058E-1,1.0185069E-2,-6.003333E-2,1.1419776E-2,-9.742918E-2,4.7759566E-2,-1.5039905E-2],"split_indices":[9,5,9,6,0,4,3,1,7,3,3,5,3,5,5,0,0,0,0,0,0,0,0,0,0,0,0,0,0,0,0],"split_type":[0,0,0,0,0,0,0,0,0,0,0,0,0,0,0,0,0,0,0,0,0,0,0,0,0,0,0,0,0,0,0],"sum_hessian":[3.5858242E4,3.2029125E4,3.8291162E3,1.679384E4,1.5235285E4,3.1836758E3,6.4544055E2,9.132807E3,7.661033E3,3.1291152E3,1.210617E4,4.5929376E2,2.724382E3,1.900612E2,4.5537933E2,5.962673E3,3.1701335E3,5.830876E3,1.830157E3,7.6617285E2,2.3629424E3,6.019277E3,6.0868936E3,4.5710547E2,2.1883192E0,2.6753157E3,4.906621E1,1.8325752E2,6.803682E0,4.4319824E2,1.2181072E1],"tree_param":{"num_deleted":"0","num_feature":"10","num_nodes":"31","size_leaf_vector":"1"}},{"base_weights":[1.269661E-4,-3.6223628E-2,7.791836E-2,2.828702E-1,-5.3180434E-2,3.9168376E-2,2.1806742E-1,-7.1630746E-1,3.7525994E-1,-1.46227E-1,4.8586007E-4,5.4004014E-2,-3.227093E-1,3.3002585E-1,1.8731395E-2,-8.452835E-2,1.12425506E-1,3.0093981E-2,1.4053312E-1,-9.146054E-3,-3.6483254E-2,7.00119E-3,-1.916333E-2,2.6481895E-2,3.0608936E-3,-1.12963974E-1,-1.549939E-2,3.7213005E-2,-2.4962963E-3,-2.8229628E-2,1.8057834E-2],"categories":[],"categories_nodes":[],"categories_segments":[],"categories_sizes":[],"default_left":[0,0,0,0,0,0,0,0,0,0,0,0,0,0,0,0,0,0,0,0,0,0,0,0,0,0,0,0,0,0,0],"id":45,"left_children":[1,3,5,7,9,11,13,15,17,19,21,23,25,27,29,-1,-1,-1,-1,-1,-1,-1,-1,-1,-1,-1,-1,-1,-1,-1,-1],"loss_changes":[1.0106433E2,1.3181146E2,6.180487E1,1.1374451E2,1.1549754E2,4.7894825E1,5.5009727E1,2.5730328E1,8.57668E1,1.01259766E2,1.9596571E2,4.2247334E1,4.7374207E1,2.360231E1,4.3298504E1,0E0,0E0,0E0,0E0,0E0,0E0,0E0,0E0,0E0,0E0,0E0,0E0,0E0,0E0,0E0,0E0],"parents":[2147483647,0,0,1,1,2,2,3,3,4,4,5,5,6,6,7,7,8,8,9,9,10,10,11,11,12,12,13,13,14,14],"right_children":[2,4,6,8,10,12,14,16,18,20,22,24,26,28,30,-1,-1,-1,-1,-1,-1,-1,-1,-1,-1,-1,-1,-1,-1,-1,-1],"split_conditions":[1.173658E0,-1.0454545E0,3.3333334E-1,-1.3382353E0,-6.99989E-2,7.7272725E-1,3.7235293E-1,2E0,5E-1,1.3597059E0,3.8421514E0,-1.1666666E0,-5.2651584E-1,4.0519653E3,5.7149462E-2,-8.452835E-2,1.12425506E-1,3.0093981E-2,1.4053312E-1,-9.146054E-3,-3.6483254E-2,7.00119E-3,-1.916333E-2,2.6481895E-2,3.0608936E-3,-1.12963974E-1,-1.549939E-2,3.7213005E-2,-2.4962963E-3,-2.8229628E-2,1.8057834E-2],"split_indices":[4,0,5,2,3,0,2,1,6,2,3,5,3,3,3,0,0,0,0,0,0,0,0,0,0,0,0,0,0,0,0],"split_type":[0,0,0,0,0,0,0,0,0,0,0,0,0,0,0,0,0,0,0,0,0,0,0,0,0,0,0,0,0,0,0],"sum_hessian":[3.573803E4,2.4356969E4,1.13810625E4,1.228239E3,2.3128729E4,8.916898E3,2.4641643E3,1.0338599E2,1.124853E3,8.459658E3,1.4669071E4,8.566552E3,3.50346E2,1.5774968E3,8.866675E2,9.7121056E1,6.264933E0,1.0503612E3,7.4491936E1,6.7660117E3,1.6936464E3,1.0771578E4,3.897493E3,8.546762E2,7.711876E3,5.929999E1,2.9104602E2,1.4101901E3,1.6730676E2,3.097685E2,5.76899E2],"tree_param":{"num_deleted":"0","num_feature":"10","num_nodes":"31","size_leaf_vector":"1"}},{"base_weights":[1.0460146E-4,-1.6952397E-2,1.5763748E-1,-6.903402E-2,4.340597E-2,1.1770213E-1,2.859806E-1,-4.6781782E-2,-4.0596968E-1,2.0832829E-1,8.7613676E-4,1.8112104E-1,3.554022E-2,4.026968E-1,1.5045708E-1,-2.0133525E-3,-2.806642E-2,-7.2932385E-2,-1.455649E-2,1.54294735E-2,5.5099685E-2,3.1897675E-3,